food -0.513495 -0.195444 1.178923 0.624437 -0.499924 0.307503 -0.474540 0.326687 -0.496632 0.213169 -0.521480 -0.268412 0.226015 0.759892 1.121748 1.086749 -0.485359 -0.327715 -0.256594 -0.296403 0.431267 -0.248283 0.699551 0.202078 -0.946248 0.154567 1.321973 0.062639 -0.233745 0.464743 -1.642262 1.259693 -0.857217 0.079950 0.266058 0.133472 0.039269 -1.111839 0.922005 -0.953941 -2.335897 0.383984 0.025497 -0.501030 -0.559652 -0.026178 0.482394 0.019346 -1.452254 0.981729
place -0.143149 -0.715095 1.606939 0.544828 0.060351 1.100775 0.598165 1.272004 -1.295636 0.149720 -0.042622 -0.297412 0.500045 0.584917 1.210167 0.473641 -0.327089 0.401100 0.288747 0.718507 0.886194 -0.175619 0.222320 -0.189956 -0.330603 -0.074395 0.397588 0.185469 0.520286 -0.078525 -1.403376 1.231050 -0.829951 0.340917 -0.235349 -0.227176 -0.337662 -0.714682 1.058806 -0.480767 -1.588676 -0.349205 -0.166596 -0.452138 -0.067435 0.370259 0.013309 -0.646825 -0.101830 0.814515
good 0.337695 -0.241701 0.960126 0.015145 -0.293801 -0.472351 -0.410181 1.233167 -1.717564 0.082782 -0.256242 0.132511 0.198016 -0.444492 1.586525 0.198636 -0.621247 -0.188640 -1.267573 0.209491 0.538301 0.615419 0.450610 0.051833 -0.021672 0.256940 0.699600 0.018971 0.740733 0.119879 -1.309159 0.714747 -0.569717 0.032567 -0.722655 -0.040021 -0.186555 -1.333607 0.484979 -0.237368 -1.345756 0.226758 0.254877 0.374141 0.028547 -0.186201 -0.272776 -0.695246 -0.942528 0.533140
order -0.913498 -0.083863 1.041622 1.086462 -0.566989 -0.266739 1.068138 1.023194 -0.827328 0.404606 -0.364047 -0.031037 0.713492 -0.161161 0.860184 0.159842 -1.060979 -1.258970 -0.443251 -0.609945 0.181334 1.001577 1.279166 0.002933 -0.266681 0.397248 -0.227266 -0.785081 -0.008544 0.665247 -0.520904 1.186223 -1.278160 0.477943 -0.209907 -0.005095 0.373527 -0.223166 0.937833 -0.368651 -1.137087 0.030684 -0.390156 -0.142748 0.297473 -0.908806 -0.025728 -1.127814 -1.529494 -0.804535
great 0.346484 -0.481906 0.889310 0.440874 -0.363170 0.600839 -0.392866 1.021544 -0.664125 0.498404 -0.709623 -0.312836 0.378551 -0.298384 1.583347 0.103946 -0.456109 -0.169376 -0.612424 0.070041 0.711261 0.584121 1.276944 -0.100650 0.161698 0.154393 0.664310 0.458918 0.213166 0.122447 -0.752248 0.807295 -0.374083 -0.024896 -0.175236 -0.097681 -1.075770 -1.008810 0.316695 -0.836310 -2.070438 0.011910 -0.265849 -0.211393 -0.169000 0.065717 0.226603 -0.789125 -0.291316 0.391264
time -0.874601 -0.731902 1.468446 0.946243 -0.151799 1.071091 0.437463 0.891393 -0.879798 0.432086 -0.564181 0.233128 0.391397 0.108545 0.750161 0.175113 -0.522275 -0.323574 -0.096685 -0.487258 -0.289839 0.791890 -0.135889 0.259167 -0.174049 0.315301 -0.205708 0.891477 0.196773 0.477109 -0.879619 0.699643 -1.434731 0.175321 -0.468596 0.433222 0.325694 -0.714286 1.169698 -0.803112 -1.457715 -0.352863 -0.183948 0.458750 -0.730564 -0.656104 0.802298 -0.249014 -0.806767 0.245387
servic -0.541487 -0.267911 0.354136 0.384663 -0.707989 0.868474 0.020715 0.918467 -0.424271 0.595643 -1.343582 -0.658010 0.052310 -0.220034 0.737645 0.855810 -0.230574 -0.014253 -0.228309 -0.332139 -0.228588 0.269380 1.070658 0.069581 -1.357935 -0.126663 1.265971 0.751790 0.004766 0.535751 -1.318619 0.708010 -0.385792 -0.010544 -0.707560 0.454157 0.538748 -1.591635 0.998992 -0.903920 -1.991189 0.169778 -0.417717 0.446525 0.143852 -0.152128 -0.001699 -0.994838 -0.296278 1.028673
come -0.056331 -0.239412 1.530766 0.891591 -0.159861 0.490942 -0.037976 0.289875 -0.745034 0.082197 -0.528060 -0.097650 0.522754 -0.124627 0.894608 0.050875 0.095795 -0.541001 -0.596941 -0.079521 -0.002453 0.594408 0.447093 0.652129 -0.422273 -0.481296 0.275775 -0.500364 -0.202192 0.672241 -0.890058 0.946102 -0.931697 0.291733 -0.560862 -0.294956 0.025366 -0.725305 1.086463 -0.716219 -1.538985 -0.920614 0.329409 0.228186 0.096770 -0.272550 0.652852 -0.838987 0.227907 0.184339
like 0.353247 -0.255621 1.054142 0.657845 0.088190 -0.897183 -0.384274 0.715284 -1.225571 0.401809 -0.283557 -0.405024 0.684425 0.552195 1.141872 -0.104989 -1.057683 -0.285709 -0.777178 0.605196 0.373642 0.333335 0.605201 -0.367342 -0.558823 0.183040 0.684292 -0.394209 0.700982 0.666212 -1.033164 0.295433 -0.920556 0.053846 -0.371058 0.310521 0.163984 -0.109467 1.050359 -0.552849 -1.467880 -0.478762 0.080152 -0.078166 -0.298687 0.073234 -0.429402 0.218693 -0.203057 0.241860
sushi -0.046760 -0.046331 0.889208 -0.827358 -0.017395 1.425925 0.869572 0.622692 -1.165530 0.995593 -0.702442 -1.271396 1.239087 0.224865 1.718772 -0.190657 -0.128124 0.686827 0.611199 0.232748 0.361172 -0.477372 -0.668057 -0.278571 -0.329789 -0.054410 -0.271523 -0.204297 0.765662 -0.472715 -1.555425 0.489480 -1.050501 -0.343487 -0.009521 -0.334515 -0.126699 -1.210279 0.934279 -0.318009 -1.567761 -0.811366 0.763329 -0.251470 0.595392 0.270421 0.044810 -1.449102 -1.255735 -0.485172
go 0.063537 -0.585165 1.957067 0.651999 -0.358946 0.090805 0.456080 0.321783 -0.445163 0.516235 -0.510267 -0.319177 0.434899 -0.335585 0.377675 0.359847 -0.230787 -0.499767 0.024672 0.171396 -0.291763 0.851519 0.434500 0.126085 -0.494193 -0.416564 0.116116 0.104974 0.449826 0.423688 -1.016425 0.692321 -1.144778 0.243299 0.440976 0.708124 0.269023 -0.608315 0.769107 -0.872821 -1.573175 -0.501916 0.220025 0.096601 -0.813659 -0.099039 -0.137442 -0.470023 -0.037801 0.925627
restaur -0.918501 -0.025176 1.362675 -0.018638 -0.077616 0.860617 0.328249 1.045448 -0.219598 0.732058 -1.142516 -0.009274 0.591545 0.626849 0.920080 -0.024253 -0.533829 -0.323360 -0.389454 0.307092 0.521484 -0.699237 0.044938 -0.219286 -0.133261 0.381669 0.489073 0.115549 0.775180 -0.212379 -1.377492 0.667405 -0.644563 0.328442 0.473182 0.496244 -0.774352 -0.690578 0.580305 -0.698251 -1.453026 -0.510619 -0.250348 -1.146852 -0.178324 0.067304 -0.052516 -0.961280 -0.135268 0.732780
love 0.390783 -0.485615 1.119873 0.436135 -0.357693 0.443503 -0.540924 1.115179 -1.104505 0.601202 -0.657261 -0.261978 -0.314881 -0.032118 1.559272 -0.104609 -0.124171 -0.644057 -0.196425 0.063699 0.450771 0.552448 0.692506 -0.662706 -0.047711 -0.325742 0.601526 0.136947 0.122462 -0.213968 -0.915679 0.326424 -0.346257 0.869175 -0.421194 0.228718 -1.076396 -0.770769 0.908729 -0.613702 -1.218529 -0.532656 0.625011 0.366368 0.121424 0.050128 -0.251640 -0.281478 -0.266489 0.279492
friend -0.426878 -0.702702 1.026133 1.244631 -0.087850 0.770493 -0.235628 1.356788 -0.604796 0.319753 -0.472123 0.096561 0.478185 -0.744262 0.818993 0.626426 -0.439947 -0.160550 0.165248 0.033820 0.551313 0.384212 0.831448 -0.284532 -1.050694 0.705959 -0.105528 0.010364 0.894382 0.678991 -1.201780 0.744488 -0.231904 0.094146 0.034381 -0.141005 -0.549930 -0.611737 0.488636 -0.269657 -1.390134 -0.378616 0.194268 -0.097269 0.266803 -0.576623 -0.593817 -0.753947 0.349835 0.350749
roll 0.549508 -0.001108 0.225342 -0.439900 -0.492133 0.133898 0.624721 0.381571 -2.221215 0.953579 -0.422334 -1.545214 1.696485 -0.316627 0.847409 -1.110378 -0.628812 0.137357 0.540505 -1.320728 0.550673 1.052138 -0.701574 -0.287664 -0.476026 0.176937 0.793208 -0.145758 -0.475328 -0.343179 -1.115767 0.169269 -0.845259 0.204819 0.517621 -0.109051 -0.954241 -1.151323 1.084303 -1.062220 -1.121526 -0.627913 1.424761 0.574554 0.645165 0.429181 0.041262 -0.204805 -1.013118 -1.664998
chicken 0.047349 -0.783589 0.948957 0.847162 -0.281316 -1.154942 -0.464581 0.378803 -1.092177 -0.711621 -0.788452 1.212638 0.635831 0.288442 0.287685 0.107325 -0.426350 -1.397863 -0.453354 -0.777413 -0.947195 0.857901 0.885307 0.604720 0.895004 0.045167 0.575636 -1.477413 0.464810 -0.201237 -1.065502 -0.011686 -0.653997 -0.178055 0.081296 -0.449487 -0.766154 -1.543145 1.330530 -0.525419 -1.614644 -0.302229 0.111426 0.133800 1.778212 -0.303257 -1.002051 0.699885 -0.306555 0.171613
wait -0.812829 0.042175 1.804973 0.530426 -0.059396 0.841395 0.042854 0.759964 -0.242647 -0.136305 0.065649 0.065687 0.186694 -0.062370 1.115915 -0.530578 0.032545 -0.498427 0.384559 0.428807 0.491845 0.537024 0.277084 1.079903 0.029295 0.410265 0.612211 -0.346690 0.359642 1.327607 -0.683917 1.555310 -0.361918 -0.161577 0.368220 0.836599 0.896971 -1.868681 1.356525 -0.919043 -0.442460 0.359819 0.255135 -0.200632 -0.442002 -0.564814 -0.218983 -0.141813 -0.662080 -0.143173
fri 0.378043 0.567997 0.633815 0.416211 0.307802 -0.274542 -0.241498 0.631959 -1.473676 -0.801654 -1.334780 0.315482 0.299551 0.797363 1.877828 0.254881 -0.583843 -0.366874 -0.660388 0.676709 -1.076585 1.351739 0.583303 0.818055 0.224804 0.635318 0.271789 -0.393341 -0.362084 0.785754 -0.635344 -0.518587 0.326489 0.623813 -0.874718 -0.491927 -0.167940 -0.138607 0.731959 -0.978642 -1.141307 -0.452792 1.188799 0.054187 0.361515 -0.681358 -0.131522 -0.046995 -0.789050 -0.779037
menu -0.300159 -0.369318 0.934771 -1.019882 0.130547 -0.070817 -0.275460 0.783373 -1.104793 0.454486 -1.337693 0.938685 0.850783 -0.059028 1.194259 -0.090180 0.027232 0.367538 0.504674 -0.103754 1.695796 1.127759 1.230266 0.428794 -0.222777 0.922864 -0.196875 -0.656957 0.370607 0.549494 -0.031256 -0.284808 -0.926180 0.890579 -0.062767 0.329833 -0.127175 -0.800444 0.364759 -0.484807 -1.621071 -0.501792 -0.148144 -0.059160 -0.106501 0.819786 -0.071960 -0.886802 -0.813466 -0.005359
nice 0.416436 -0.570425 0.675850 1.162700 -0.185636 0.607936 -0.632181 1.151972 -0.700534 -0.082743 -0.985245 0.412044 1.201593 -0.777936 0.685363 -0.302969 -0.731254 0.003061 -0.639019 0.392125 1.028095 0.453572 0.256918 0.718790 -0.681847 0.231405 0.413661 0.275459 0.251839 0.422227 -0.410058 0.220758 -0.074415 -0.450619 0.385174 -0.504519 -0.761698 -0.566133 0.515563 -0.683752 -1.500538 0.090630 0.149332 -0.644385 0.078880 -0.175004 -0.012113 -0.636902 0.078287 0.510433
drink 0.234094 -0.824774 1.101923 0.492815 0.159329 -0.250666 0.435649 0.287205 -0.544730 1.218770 0.583095 -0.059595 1.613983 -0.423122 0.953341 -0.222258 -0.485155 -0.258038 -0.488819 0.165532 0.730306 0.767140 1.032628 0.640134 -1.165232 -0.146961 0.384754 -0.006466 -0.059117 -0.238836 -0.346535 1.510500 -0.157748 -0.027114 -0.744714 0.391538 0.710756 -1.738481 -0.286519 0.018422 -1.357266 -0.193324 -0.163981 -0.981028 -0.737544 -0.610988 -0.241268 -0.176773 -0.683240 -0.289775
price -0.199397 0.724658 0.710303 -0.154677 0.197183 0.071587 0.369755 0.069010 -1.059227 -0.214561 0.782472 -0.148704 1.143234 -0.429308 1.445062 -0.306105 -0.222953 0.583273 -0.617176 0.502234 0.173390 0.503137 0.738963 -0.157482 -0.564189 0.962567 0.608478 -0.258491 -0.668062 -0.350969 -1.101012 0.191145 -0.350651 0.323349 0.552059 -0.766706 -0.725381 -1.689980 0.945938 -1.013858 -1.837705 -0.260643 -0.299448 -0.356585 -0.256241 0.009249 -0.396948 -0.608018 -0.434614 1.302697
fresh 0.106838 -0.208925 0.870365 0.243725 -0.227206 -0.026014 -0.124907 1.120721 -0.343667 -0.728884 -0.604147 -0.503113 0.272888 -0.779093 2.215202 0.160718 -0.171312 -0.483932 -0.010674 -0.566877 -0.248841 0.081292 0.105148 0.126656 -0.746918 -0.215290 0.801552 0.535500 0.646527 -0.071938 -0.487693 0.614152 -0.621055 -0.635765 -0.018805 -0.954028 -0.770558 -0.485668 0.836297 0.087880 -1.060414 -0.643722 1.634631 0.031846 -0.436219 0.344195 -0.395233 -0.617131 -1.449159 0.184919
best -0.600104 0.220872 1.212429 -0.418876 -0.125264 0.548091 0.463926 0.933487 -0.557616 0.052913 -0.345967 -0.650939 0.290702 0.478203 1.651839 0.635224 -0.684129 -0.146590 -0.381081 0.300741 0.218433 -0.502090 0.144165 0.644247 0.377936 0.024418 0.221646 -0.047781 0.821421 0.186125 -1.259045 0.511396 -0.275320 0.049213 -0.770497 -0.550095 -0.490673 -0.873069 -0.052833 -0.553735 -1.863568 0.239217 0.211715 0.398349 0.756321 -0.240572 -0.440265 -0.029290 0.408252 0.108706
want 0.666468 -0.407698 1.891170 0.375012 0.043958 -0.104348 -0.418531 0.462495 -0.413550 0.399699 -0.105062 0.053485 0.787292 -0.235844 0.943688 -0.231124 -0.014750 -0.541305 -0.086647 0.327844 0.596111 0.050034 0.484065 -0.166453 -0.185254 -0.154090 0.127417 0.177150 -0.280668 -0.078807 -1.341038 0.419428 -0.634617 -0.157461 -0.019591 0.110922 0.646545 0.039341 1.024917 -0.290030 -1.457484 -0.271169 -0.438116 -0.258009 -0.398065 -0.086011 -0.884151 -0.648514 -0.335474 -0.270917
delici 0.391871 -0.416386 1.128665 0.615528 -0.454062 -0.270386 0.139798 1.046214 -0.414742 -0.145096 -0.354055 -0.144687 0.266324 -0.076228 1.753963 0.151048 -0.157739 -0.258592 -0.259827 -0.625764 0.565426 0.376358 0.591033 0.268409 -0.245549 0.237058 0.160986 -0.004037 0.081298 -0.007478 -0.259696 0.190626 -0.218465 0.223697 -0.401105 -0.710045 -1.050277 -0.792991 0.312176 -0.894970 -1.494352 0.100411 0.952824 0.406780 0.187442 -0.040205 -0.347443 -0.298213 -0.703277 0.142763
tast 0.242483 -0.675566 0.984941 0.463926 0.372312 -0.934147 0.277570 0.218437 -0.635845 -0.406694 -0.156843 -1.028880 0.263865 0.313458 1.283796 -0.285975 -1.177281 0.243960 -0.996303 -0.806928 0.300234 0.402336 -0.243006 -0.289469 -0.497494 0.171102 0.874024 -0.462705 0.314157 0.778887 -0.506544 -0.165814 -1.412366 -0.709380 -0.792380 -0.147030 -0.018429 -0.426596 0.687631 0.583039 -1.502815 -0.772451 0.423339 0.215725 0.037675 0.525928 -0.469125 0.061808 -0.877288 0.376738
burger -0.240187 0.828373 1.850824 0.000751 0.251801 0.262594 0.108166 0.252317 -0.645288 -1.191430 -0.844498 0.036313 -0.021306 1.104295 1.323451 -0.528687 -0.393098 -0.255689 -0.735203 -0.692499 -0.383331 1.555784 0.992477 -0.092357 -0.750936 0.508719 -0.727845 -0.691174 -0.309790 -0.175586 -1.025234 0.027442 0.787070 0.126879 -1.728351 -0.296967 0.697156 0.039735 0.241072 -0.391147 -1.085394 -0.783248 0.621398 -0.632534 -0.473375 -0.239183 -0.926584 0.235978 -0.464075 0.448963
think -0.412475 -0.384495 0.905203 0.527807 -0.256861 -0.067281 0.163401 0.815760 -0.975497 -0.414159 -0.099531 -0.268402 0.970642 0.152144 0.892472 0.002158 -0.136733 -0.326221 -0.982581 0.044365 0.343213 0.207496 0.037375 0.238294 0.306803 0.106657 0.594535 -0.614587 0.467765 0.481975 -0.951201 0.431579 -0.473313 0.148539 -0.122497 0.357356 0.250191 -0.478441 0.771431 -0.248902 -0.895811 -0.045839 0.260614 0.227172 -0.417501 0.048786 -0.333320 -0.646681 -0.113451 0.935079
staff -0.877194 -0.201608 0.959541 0.888299 -0.047053 1.162287 -0.576870 1.653497 -0.366053 0.466951 -0.436925 -0.604278 0.045652 -1.111098 0.302723 -0.048271 -0.351751 0.098523 -0.112530 -0.255397 0.437908 0.143181 0.874461 -0.122186 -0.846920 0.632060 0.714761 0.101280 0.328413 1.258060 -0.560975 0.495101 -0.128756 -0.171582 0.102225 -0.198245 -0.507635 -0.882983 0.842116 -0.051085 -1.531457 -0.610192 0.084071 -0.188654 -0.153715 -0.649110 -0.322386 0.047923 0.373796 0.615207
locat -1.051954 -0.595847 1.334190 -0.101757 -0.376611 0.192901 0.154211 1.887407 -0.460291 0.502731 -1.201526 -0.754905 0.140097 0.242237 -0.267764 -0.278891 -0.111374 0.381193 -0.728974 0.416483 -0.564665 0.675213 1.015845 0.209767 0.605066 0.419921 0.468401 0.684782 -0.134506 -0.654168 -0.247344 0.549013 -0.456950 -0.256835 0.680315 0.121431 0.575224 -0.537621 0.775678 -1.239481 -1.310705 -0.789036 -0.185175 -0.108962 -0.468826 -0.274086 -0.120182 0.296853 0.187446 0.850025
look 0.332423 -0.032843 1.160489 0.765931 0.449621 -0.328394 -0.293807 0.062124 -0.816319 -0.198966 -0.357995 -0.003174 0.904332 0.745893 0.617577 -0.091263 -0.867272 0.082006 0.598897 0.251315 1.612490 0.328003 0.148036 -0.222047 -0.743481 0.055339 0.315408 -0.180322 -0.090036 0.522239 -0.769710 0.730436 -0.713457 -0.722313 -0.054629 0.299065 -0.097982 -0.248279 0.585955 -1.339611 -1.226573 -0.956979 -0.167948 0.124915 -0.007293 0.222926 -0.382952 -0.058087 -0.331038 1.092522
definit 0.168080 -0.478924 1.228397 0.372435 -0.249655 0.275896 -0.160226 0.641527 -0.507982 0.321817 -0.048948 -0.263431 0.189319 -0.121658 1.647792 0.329170 0.253184 0.508340 -0.813714 -0.359968 0.321522 0.258126 -0.001329 0.279756 -0.254649 0.175156 0.585719 -0.253119 0.182133 -0.153210 -0.770416 0.397756 0.057123 -0.117012 -0.070124 -0.639757 -0.202385 -0.807319 0.696634 -1.095213 -1.092119 -0.083643 0.080652 0.485788 -0.273339 -0.401278 0.261534 -1.126882 -0.161378 0.616170
tabl -0.283763 -0.639247 1.255233 0.227826 0.542041 0.061302 -0.206153 1.394589 0.886219 -0.060688 -0.833713 0.546953 0.565602 0.334977 0.145124 -1.003883 -0.181557 0.062501 0.633014 1.030698 0.175137 -0.155800 0.085622 0.169295 -1.064640 -0.154473 0.804878 -0.097100 0.159422 0.982429 -1.281219 0.932333 -0.482459 0.077158 -0.112693 1.592078 0.408150 -1.477664 0.384378 -0.312968 -0.610015 -0.635364 0.137671 -0.224038 -0.190177 -0.678974 0.357857 -1.122631 -0.525827 -0.496806
amaz 0.081092 -0.654492 0.917380 0.104704 -0.222706 -0.123682 0.377343 0.807684 -0.758594 0.162277 -0.493719 -0.387613 0.208389 -0.275243 1.591427 0.485372 -0.200259 -0.303735 0.083660 -0.787138 0.639698 0.276379 0.488390 0.326083 -0.152218 -0.063026 0.169569 0.165706 0.478962 0.453410 -0.560507 0.504597 -0.470711 0.038114 -0.482807 -0.140616 -1.266600 -0.741481 0.207803 -0.694807 -1.517926 0.209926 0.246988 0.386665 -0.078603 0.194886 -0.154053 -0.413000 0.109715 0.545196
littl 0.483660 -0.510683 0.887168 0.607289 0.159050 0.438370 0.181222 0.886438 -1.084494 -0.006563 -0.502388 0.703301 1.178385 0.353722 0.906182 -1.007299 0.151596 0.014455 -1.320057 0.305364 0.043670 0.188160 0.135945 -0.041612 -0.049391 0.466630 0.546555 -0.699851 -0.100948 0.674819 -0.169054 0.798629 0.126839 0.459073 0.128451 0.162499 0.169848 -0.245159 0.618892 -0.342451 -1.153313 -0.404956 0.753922 -0.254790 0.132304 0.260662 0.216694 -0.387883 -0.632160 0.898497
thing -0.205072 -0.262920 0.922889 0.224969 0.392692 0.104721 0.392462 1.220689 -1.206035 0.394151 -0.869616 0.026577 0.834677 0.206826 0.838700 -0.205134 -0.542018 0.333682 -0.313911 0.226752 0.798464 0.392100 0.397393 -0.129550 0.020156 -0.008371 0.437156 -0.190301 0.527182 0.917550 -0.730890 0.464270 -0.560328 0.434791 -0.468679 0.510174 0.336705 -0.470894 0.637351 -0.232583 -0.787032 -0.779962 0.140123 0.821366 0.253741 0.095777 -0.042155 -0.012292 -0.252579 0.613317
say -0.318575 0.137124 1.289518 0.312545 -0.078160 -1.101448 0.748855 -0.142992 -0.328374 -0.126227 -0.403267 -0.288070 0.919156 0.400813 -0.059592 0.231813 0.229694 -1.118514 -0.093573 0.888651 1.152939 0.409002 0.269737 0.133810 -0.123101 -0.313251 0.278441 0.124833 -0.746415 1.000357 -1.679511 1.107295 -0.383418 -0.254950 0.235859 0.279748 0.325322 -0.817563 0.845657 -0.231895 -1.244863 -0.130200 -0.438899 0.035362 -0.352452 -0.058787 -0.936064 -0.572338 0.641300 -0.069519
experi -0.390269 -0.461748 1.124647 0.380762 -0.345572 0.400978 0.530976 0.857807 0.331570 0.604769 -0.575242 -0.721705 0.342775 -0.014560 0.662745 0.127286 -0.288463 -0.137556 -0.257224 -0.623605 0.114675 -0.325619 0.275703 -0.126720 0.251642 0.937087 0.634460 0.344125 0.240009 -0.148929 -0.719641 0.046155 -0.354957 -0.007666 -0.522835 0.816431 0.422170 -0.858538 0.570914 -0.993077 -1.653187 -0.307356 -0.677353 0.235755 -0.194430 -0.393568 -0.281492 -1.169137 -0.071943 0.991653
meal -0.266153 -0.224019 0.962008 1.099909 0.480598 0.228498 0.457973 0.479729 0.593674 0.288690 -0.276522 0.374313 0.979342 0.190885 0.985895 0.759743 0.071259 -0.034165 -1.018725 -0.248510 0.062784 0.369895 0.702086 -0.491711 -0.790856 -0.384125 0.683786 -0.306672 0.045608 0.047677 -0.156186 0.137075 -0.291758 0.107439 0.207584 -0.269541 -0.020073 -0.777899 0.390766 -1.216313 -1.683475 -0.223642 -0.034203 0.191123 0.039893 -0.584013 -0.930662 0.026070 -0.775458 -0.116801
know -0.473091 0.181530 1.371310 -0.154284 0.304146 -0.191046 -0.407537 1.129906 -1.112215 0.470443 -0.301933 -0.470317 0.932168 0.163363 0.628390 0.372064 -0.643658 -0.678530 -0.504243 0.038025 0.643715 0.104148 -0.207626 0.007380 -0.202878 -0.515977 -0.117728 0.067859 -0.208293 0.606241 -0.641222 0.104731 -0.786834 0.623982 -0.072653 0.504385 0.770011 0.227361 1.088436 -0.306923 -0.998213 -0.219611 -0.072349 0.018730 -0.219701 -0.439028 -0.159444 -0.208990 0.545729 0.286332
sauc 0.651903 -1.683314 0.551113 0.273421 -0.061135 -1.412194 0.045702 0.995118 -0.108322 -0.373852 -0.555938 -0.273985 0.452607 0.633614 1.489399 -0.739321 -0.431488 -0.554059 -0.551934 -0.981948 -0.422844 0.455832 0.146317 1.526716 -0.117224 -0.332915 0.624201 -0.080801 -0.836932 0.027479 -0.916678 -1.044887 0.125357 0.206814 0.295630 -0.436621 -0.277712 -0.246590 1.814823 0.206918 -1.414225 0.256829 0.637027 0.547179 0.674898 -0.001970 0.132208 -0.434516 0.133717 -0.556706
take -0.559414 -0.239047 1.270836 1.089695 0.338311 0.516801 -0.115685 0.164895 -0.169432 0.539179 -0.249115 0.553029 0.912377 -0.014932 0.623365 -0.090122 -0.392877 -0.442747 0.169121 -0.437956 0.299998 0.297264 0.972617 0.136031 0.304859 -0.005667 0.738049 -0.122520 -0.453993 0.856015 -0.729579 1.657857 -0.676053 -0.054506 -0.297582 0.397153 0.663295 -0.623841 0.623309 -0.502670 -0.726905 0.069037 -0.413921 -0.165841 0.132241 -0.258427 0.113928 -1.089945 -0.591690 -0.219211
pretti 0.293962 -0.580204 0.709982 -0.222331 -0.468543 -0.078118 -0.203907 1.025053 -1.287690 -0.399884 0.091108 -0.073322 0.587798 -0.203277 0.436673 -0.287507 -0.377023 0.361874 -0.654035 0.392483 0.017660 0.843996 0.563556 0.179244 -0.840230 0.093588 0.591785 -0.262636 0.611457 0.347012 -0.813714 0.647719 -0.341341 0.009103 -0.654609 -0.199440 0.542285 -0.764132 0.282491 -0.499461 -1.457358 -0.155884 0.051792 -0.398279 0.692491 0.333622 0.202137 -0.966851 -0.890929 0.759506
star -0.578627 0.405509 0.940574 0.191004 -0.045442 -0.059695 0.771259 0.707101 -0.393381 -0.958005 -0.440994 -0.516925 0.679219 -0.400632 0.321061 0.774746 -0.485306 0.062209 0.215275 0.285396 0.402545 0.024939 -0.741501 1.010145 -0.040480 0.556842 0.639835 0.668958 -0.089980 -0.649280 -0.385077 0.708712 0.374239 0.988289 -0.111227 0.466795 -0.162017 -1.117664 0.880686 -0.488025 -1.529902 -0.571787 -0.377774 -0.212871 -0.182323 -0.686491 -1.125500 -0.900104 0.009625 1.165327
minut -0.979945 0.371590 1.482692 0.768516 -0.155041 0.422025 0.340428 0.492267 0.044172 -0.401354 0.057551 0.276562 0.326297 0.078151 0.197143 -0.689026 -0.054467 -0.920179 -0.084075 0.291772 0.342635 0.534971 0.404856 1.048927 0.212587 -0.208387 0.517644 -0.422364 -0.015761 1.431853 -0.624775 1.504320 -0.679023 -0.687080 0.439441 0.952617 0.933111 -1.754323 0.974901 -0.530663 -0.025928 -0.094316 -0.012626 -0.054520 -0.210501 -0.609892 -0.087318 -0.458315 -0.642354 -0.701175
better -0.033824 0.209167 0.846496 -0.640613 0.122031 0.017453 -0.058712 0.662035 -1.044995 -0.507229 -0.372996 -0.338613 0.370226 -0.015918 0.958768 0.166059 -0.453412 -0.055409 -0.972074 -0.010870 0.016224 0.554862 0.110702 0.089855 0.153171 -0.112536 0.573630 0.054405 0.531784 -0.174772 -1.177052 -0.005431 -0.557364 0.159932 -0.380302 0.149133 0.586887 -0.478996 0.964385 -0.041692 -1.300947 -0.545872 0.190624 0.060613 -0.364041 -0.133354 -0.250666 -0.701349 -0.019785 1.096400
lunch 0.480250 -0.203264 0.997746 0.474377 -0.410259 0.685406 -0.580053 0.184352 -0.079972 -0.278089 0.738575 -0.132264 0.758761 -0.187029 0.530607 0.179800 0.598242 0.501606 -0.397446 -0.162207 -0.248635 0.883996 0.703051 0.310561 -0.057487 0.256860 -0.943501 0.363994 0.731385 0.201258 -0.404596 0.505945 -1.342060 -0.086689 0.550466 -0.372917 0.116143 -0.921226 0.720061 -1.517831 -1.778643 -0.761794 0.259313 0.029912 0.364029 -0.122807 -0.356876 -0.921529 -0.584298 0.668385
recommend 0.768925 -0.592481 1.483195 0.287458 -0.438808 0.578178 0.511011 1.078939 -0.646242 0.460980 -0.005663 -0.373201 -0.081589 -0.761234 0.968748 0.571022 -0.200636 -0.348423 -0.243764 -0.456319 0.789465 0.096657 -0.296686 0.253829 -0.490502 0.730410 -0.045602 -0.128251 0.002638 0.319122 -1.069850 0.231280 -0.160711 0.352848 0.013142 -0.327704 -0.974500 -0.311653 0.322466 -0.783478 -1.126498 -0.145965 -0.575688 0.221792 -0.257211 -0.243851 -0.248778 -0.982638 -0.261404 0.038422
tri -0.349396 -0.639040 1.218513 0.319918 0.173043 -0.004598 -0.116825 0.394958 -0.716209 0.204940 0.110952 -0.091816 0.441816 0.017364 0.365899 -0.305694 -0.290723 -0.112539 0.197143 -0.843963 0.833891 0.975564 -0.436681 -0.159184 -0.264972 0.520803 -0.021513 -0.285870 0.622788 0.059732 -1.119161 0.469929 -0.895677 -0.006962 -0.266946 -0.000571 -0.418422 -0.481379 0.392397 -0.669750 -1.049168 -0.351698 0.507810 0.530377 -0.114157 -0.020294 -0.964222 -0.210620 0.007670 0.071185
flavor -0.027207 -0.821143 1.101578 0.839362 -0.299722 -1.041499 0.818679 0.710048 -0.551109 0.189860 -0.887712 0.042948 0.133854 0.340012 1.610594 -0.832559 -0.111563 -0.293759 -0.896464 -0.685586 0.192773 0.272077 -0.579185 0.557938 -0.533900 0.665240 0.982864 -0.297001 0.277065 0.408292 0.145306 -0.320861 0.354100 0.068260 -0.554265 -0.868369 -0.897623 -0.730434 0.620681 0.516915 -0.768257 -0.056634 0.878985 0.537542 0.018833 0.288135 0.059912 -0.162851 -0.999052 0.756218
night 0.618520 -0.598025 1.859609 0.983975 -0.613841 0.702725 0.593408 0.215184 0.066116 0.266688 -0.605957 -0.412141 1.146433 -0.588540 0.563480 0.312720 -0.358048 -0.184865 0.017340 0.885601 -0.214632 1.054623 0.352430 -0.462914 -0.384440 -0.261800 0.117222 -0.574317 0.942411 0.123064 -0.683503 0.205904 -0.979349 0.392134 0.014715 0.592202 0.761862 -1.092912 -0.136632 -1.003762 -1.005284 0.634305 0.134236 -0.674914 -0.568629 0.163138 0.365114 -0.472499 0.941378 0.523141
server -0.342640 -0.300746 0.456411 0.084080 0.590768 0.554766 0.544114 0.792804 0.402250 0.706877 -0.952961 -0.362647 0.542958 -0.624801 0.736710 0.058165 -0.149082 -0.011999 -0.307234 -0.463594 0.853204 0.379274 0.422671 0.664235 -1.133405 0.243133 0.101792 0.050235 -0.131057 1.500908 -0.272856 1.173677 -0.197347 0.327173 0.291739 0.812385 0.298752 -1.029261 0.672826 -0.144955 -1.101803 0.122925 0.195770 -0.248174 -0.201806 -0.661973 -0.462912 -0.986492 0.094284 0.203937
salad 0.427955 0.489695 -0.334929 0.675937 -0.428251 -0.035362 0.582573 1.152350 -0.350268 -1.082533 0.291753 0.975438 0.423089 0.526238 0.899501 -1.368925 -0.253121 -0.532684 -1.349615 -0.975075 1.070125 0.073007 0.214251 -0.318561 -0.278092 0.074980 -0.040846 0.311929 1.160544 -0.918952 0.278868 0.764403 -0.803347 0.209641 0.100504 0.123894 0.209519 -1.242016 0.576709 0.192684 -1.898924 -0.486978 1.099479 0.785516 0.632069 -0.452104 -1.114007 -0.398952 -0.336886 -0.006294
tell -0.985543 -0.145805 1.134320 0.467899 0.255785 -0.356275 -0.007197 0.212843 -0.167917 0.188637 -0.475068 -0.125515 1.139075 -0.159358 0.244246 0.230898 0.092128 -1.500518 -0.187938 0.071280 0.281086 0.683936 0.312416 0.330530 0.182524 -0.493233 0.440051 -0.153237 0.305086 1.408242 -1.360410 0.684209 -0.776759 -0.256283 0.254993 0.496047 0.126375 -0.280968 1.077156 0.018262 -0.615523 -0.185019 -0.255928 -0.313759 -0.174527 -0.272690 -0.830580 -0.376955 -0.174642 -0.648371
peopl -0.316936 -0.180032 1.177168 0.466042 -0.012496 0.329832 -0.184246 1.520906 -0.836860 0.458955 0.184560 0.182090 1.129613 -0.152283 0.541320 0.553800 -0.035518 -0.252810 0.494798 1.165421 0.197714 0.291808 0.067226 -0.079862 -0.467886 0.120677 0.291783 -0.119021 1.045728 0.773243 -1.107930 0.165353 0.324971 0.083498 0.576296 0.365654 0.767855 -0.718989 1.037201 -0.407958 -0.378822 -0.075192 -0.932366 0.226461 -0.099520 -0.973681 -0.130198 -0.271737 -0.463436 -0.082451
dinner 0.829995 0.143617 1.020366 0.609181 -0.110068 0.105565 0.187087 0.483163 0.500723 0.115439 -0.142585 -0.163519 0.657828 -0.420865 0.544091 0.240916 0.119807 0.034389 -0.176907 0.291229 -0.132226 0.497495 0.588813 -0.350720 -0.215353 0.041201 -0.505128 -0.086603 0.675685 0.335485 -0.099249 0.651203 -1.352925 0.996703 0.231014 0.394851 -0.009736 -1.127449 0.447450 -1.764220 -1.454019 -0.296877 -0.142775 0.039388 -0.203187 -0.042659 0.124247 -1.182063 -0.334126 0.653913
right -0.181673 0.253166 1.627050 0.476909 0.038047 -0.399186 0.250724 1.299144 -0.621362 0.368187 -0.719426 -0.141695 1.181070 -0.226429 0.152550 -0.714045 -0.605322 -0.196917 -0.218274 -0.415376 0.089428 0.016091 0.432119 0.653058 0.146097 -0.542183 0.080042 0.429694 0.200235 0.337313 -0.910999 1.245974 -0.020525 0.357615 -0.188186 -0.395433 -0.140165 -0.509046 0.596734 -0.355695 -0.351778 -0.341374 0.185677 -0.118355 -0.025794 -0.037282 0.092822 -0.471915 -0.342072 0.366591
dish -0.624596 -0.489515 0.561400 0.411223 0.445652 -0.579486 0.150485 0.720984 -0.216620 0.358674 -0.993307 0.848158 0.939376 0.440145 1.450713 -0.115644 -0.286359 0.115980 -0.398752 -0.697380 0.984629 -0.321162 -0.739382 0.196751 -0.899230 1.065470 -0.051911 -0.972254 0.354831 0.798577 -0.801051 -0.832838 -1.279480 0.354312 0.051132 -0.667250 -0.214217 -0.282423 0.249898 -0.473136 -1.229235 0.157327 0.511910 0.700150 0.426107 -0.129514 -0.001022 -0.705726 -0.815884 0.230202
custom -1.368157 -0.073964 0.103731 0.123466 -0.072931 0.414267 -0.038118 0.966382 -0.198417 0.585439 -0.374949 -0.553659 0.554374 -0.202523 0.682912 0.272111 0.303765 -0.447300 0.356769 -0.045516 0.243714 -0.031405 1.130699 -0.534422 -0.389236 -0.252683 1.183314 1.408003 -0.337628 0.594269 -1.181974 0.266073 0.040887 -0.535916 -0.446828 0.364490 0.859834 -0.846182 1.456038 -0.358855 -1.123335 -0.313060 -0.947577 0.668677 -0.108359 -0.357284 -0.055818 -0.082121 0.119695 0.093476
chees 0.110978 0.234513 1.128363 0.441406 -0.828777 -0.794092 0.618903 0.685536 -0.856087 -0.864275 0.514856 0.342499 -0.225003 0.682176 1.586448 -1.690477 -0.819011 -0.501845 -0.924257 -0.664872 -0.636303 0.236243 0.846255 0.421840 -0.291408 0.693644 -0.166491 -0.078945 0.188513 1.325920 -0.661113 -0.375434 0.321080 0.801847 -0.763393 0.676770 -0.229835 0.763999 -0.018778 -0.529239 -1.780189 0.173935 0.019092 1.005226 -0.129797 0.184019 -0.733021 0.442035 -0.516437 -0.259715
enjoy 0.294466 -0.677666 0.623414 1.125390 -0.082660 0.201701 0.107318 0.723715 0.118219 0.234450 -0.095497 0.331562 0.682403 0.567983 0.879109 0.025508 -0.124164 -0.672896 -1.046533 -0.280405 0.876837 0.679177 0.179517 -0.716796 -0.497694 0.633657 0.316802 -0.071847 0.661245 -0.088262 -0.831685 -0.019856 0.022199 -0.473647 -0.030492 0.105998 -0.394214 -0.727784 0.061541 -1.335247 -0.911537 -0.142854 0.270694 0.325267 -0.248397 -0.268791 -0.472311 -0.973955 -0.050581 0.069599
ask 0.233463 -0.215887 1.293471 0.461159 0.342547 -0.306610 0.689907 -0.165194 0.005178 -0.000957 -0.828523 0.440530 0.521377 -0.583619 0.152915 -0.889376 -0.194363 -0.808065 -0.104622 -0.187534 0.439401 0.468310 0.617865 0.875939 -0.606101 -0.405281 -0.022708 -0.107535 -0.756926 1.325339 -1.341493 0.640598 -0.834176 -0.125129 0.232656 0.647647 0.567141 -0.015445 1.200382 0.315811 -1.164004 -0.321535 -0.219970 -0.523715 -0.187889 -0.483808 -0.670785 -0.511918 0.388900 -0.973521
manag -1.661564 -0.092758 0.974187 0.336595 0.326830 -0.039270 -1.016070 0.331666 0.303633 0.103881 -1.083678 -1.003434 0.621140 -0.579127 -0.214043 -0.112862 0.653561 -0.069963 -0.592265 0.080954 0.533514 0.695042 0.158883 -0.390630 0.181253 -0.565763 0.657924 -0.178854 -0.794722 1.354515 -0.545524 0.650406 -0.264485 0.011256 0.077992 0.100832 0.642677 -0.561617 1.095073 0.123804 -1.188321 -0.857851 -0.739239 -0.088317 -0.351347 -0.679680 -0.794682 -0.769818 0.430840 -0.213423
qualiti -0.586757 0.923020 0.758233 -0.985659 -0.214275 0.126637 0.573426 0.413397 -0.689680 -0.220688 -0.336357 -0.608606 0.263342 -0.507178 1.438909 0.657845 0.040832 0.536716 -0.417084 -0.226351 -0.351289 -0.312990 0.189947 -0.453174 -1.116148 0.383516 0.939659 -0.127667 0.439822 0.040779 -0.907544 0.058522 -0.465050 -0.368408 0.287889 -0.874699 0.080113 -0.988693 0.757843 -0.108293 -1.450382 -0.760208 0.313152 0.145061 -0.304466 0.506416 -0.306510 -0.915641 -0.795424 1.404328
work -0.748373 0.129177 1.438538 0.946393 -0.184014 0.304249 -1.130421 1.341062 -0.821907 0.913212 0.170082 -0.739489 1.012617 -0.086741 0.023677 -0.071161 -0.234113 -0.266141 0.200279 0.009091 -0.249042 0.558044 0.397980 -0.144789 -0.219312 -0.160921 -0.022724 0.466428 0.535243 0.916028 -0.515578 0.404956 -0.424900 0.223342 0.283592 -0.509478 0.306665 -0.359181 1.060990 -0.142597 -0.729777 0.069032 -0.421043 -0.337904 -1.011101 -0.486666 -0.294428 -0.113305 0.247891 0.382949
serv -0.610778 0.266016 0.680386 0.070437 0.342636 -0.553518 0.243136 1.030633 -0.010912 -0.122019 -0.426327 0.472179 0.966214 0.641218 0.978089 0.524854 -0.263067 -0.017821 -0.111208 0.076201 -0.353264 -0.086796 0.685583 0.589932 -1.102605 0.098981 0.179525 0.035975 0.426168 0.799085 -0.826329 0.382548 -0.382186 0.594750 0.038569 0.028328 -0.237411 -0.387345 0.635305 0.039199 -0.973040 -0.530193 0.965402 0.061452 0.280226 -0.397133 0.329625 0.031426 -0.650951 -0.085481
favorit 0.139474 -0.446758 1.214329 -0.402182 -0.592122 0.424749 -0.105045 0.744093 -0.480849 0.400653 -0.324971 -0.619837 0.293200 0.101708 1.437342 -0.023596 -0.058997 -0.205919 -0.464132 -0.364854 0.456102 0.511402 0.509472 0.087306 -0.159628 -0.132546 -0.081655 -0.884991 0.391488 -0.371681 -1.278805 0.108579 -0.273301 0.356526 0.306665 -0.100851 -0.906968 -0.350546 0.198897 -0.711774 -0.834654 -0.206037 0.907101 0.889845 0.131893 0.197542 -0.198246 -0.042043 -0.569786 -0.026467
hour -0.071120 0.364866 1.589904 0.221352 -0.132118 0.556746 -0.116508 0.659052 -0.154805 -0.414366 0.906474 -0.756369 1.270342 -0.030337 0.485880 0.038219 0.210285 0.304450 -0.054684 0.423361 0.251350 1.195582 0.477633 -0.149353 0.412617 0.164819 0.619397 0.477340 -0.134884 0.084294 -0.561418 0.234577 -1.189766 -0.180101 -0.078903 0.764826 -0.130453 -2.175984 0.583784 -0.709317 -0.465717 0.128165 0.375796 -0.885651 -0.056616 -0.229314 0.335818 -0.377026 -0.257106 -0.449890
leav 0.116380 0.063867 1.797894 0.803248 0.203712 0.056033 -0.489772 0.368042 -0.095390 0.347182 0.165590 0.529826 1.008103 0.329455 0.449631 0.194299 0.171603 0.171130 0.051981 -0.389036 -0.022493 -0.379684 0.169647 0.220713 -0.052610 -0.305458 0.462376 0.252198 -0.587099 0.377310 -0.822783 0.738016 -0.159127 0.086321 -0.161070 1.052539 0.737388 -1.130778 1.179419 -0.329676 -0.717627 -0.789187 -0.141166 0.868212 -0.129517 -0.364965 -0.125831 -0.286228 -0.218008 -0.443148
perfect 0.701881 -0.071899 1.207473 0.826023 -0.090966 -0.866939 -0.194441 1.515966 0.147736 -0.516533 -1.380289 0.307135 0.941730 -0.265707 1.586167 0.025687 -0.114569 0.238677 -0.720297 -0.529315 -0.385978 0.299045 -0.000628 -0.051553 -0.363375 -0.330537 -0.293271 0.179748 0.497591 0.320601 -0.249342 0.375963 -0.117741 -0.079583 -0.350652 -0.942296 -1.104064 -0.331917 -0.061776 -0.639598 -0.982663 0.638177 0.723184 0.378033 -0.307789 -0.696792 0.327600 -0.206525 -0.251636 0.226278
busi -0.394581 -0.764395 1.225580 0.202206 0.120928 0.848534 0.106574 1.446858 -0.243876 0.043830 0.118073 -0.782188 0.535400 -0.233124 0.309144 0.051308 0.784325 0.437475 -0.322092 0.134807 -0.330861 0.726353 0.631311 -0.343654 -0.038317 0.325611 0.202663 0.090427 0.761857 1.151083 -0.845851 1.012258 -0.634378 0.000969 0.045498 0.250620 0.865833 -0.926133 1.032065 -0.176209 -0.541986 0.028275 -0.168302 -0.875819 0.145745 -0.007958 -0.152256 -0.242229 0.273527 0.665736
rice 0.533802 -0.461784 0.034215 0.078456 -0.054446 -0.651991 -0.269660 0.410762 -1.094557 0.113381 -1.116959 0.695606 1.188781 -0.276016 1.225356 0.240989 0.181231 -0.677438 -0.682591 0.559877 -0.574901 -0.063976 -0.346876 -0.064065 -0.074094 0.674865 0.198452 -0.161713 -0.339115 0.649342 -0.081493 0.360830 -0.852386 0.133798 0.251227 -0.890360 0.058044 -0.515601 1.681449 -0.199344 -1.167325 -0.791085 0.631144 0.878700 1.871957 0.493620 0.172167 0.285130 -1.355349 -0.666602
sandwich -0.656357 -0.066172 0.118330 0.782009 -0.312708 -0.704675 0.538093 0.738728 -0.951810 -0.860420 0.702919 0.190320 0.063585 0.816866 0.223973 0.211929 -0.075445 -0.541900 -0.399846 -0.663294 -0.012381 0.537406 1.327560 0.927922 0.678852 0.209417 -0.203373 0.534361 0.306706 0.553681 -0.627178 0.581311 -0.110043 0.258178 -0.268447 -0.679651 0.019571 -0.392646 0.184803 -0.081070 -1.048832 -0.904988 0.440269 0.483242 -0.575885 0.409338 -2.356969 -0.145108 -1.027916 0.224933
fish 0.312976 0.001954 0.579286 -1.215414 0.645187 -0.575829 0.243945 0.757283 -0.578048 -0.685314 -0.520201 -0.022439 1.086028 -0.447298 2.174534 0.739244 -0.609149 -0.810624 0.170618 -0.387834 -0.519436 -0.284761 -0.337407 -0.112151 -0.012412 0.153805 1.041279 -0.375360 0.317923 0.326923 0.377055 0.791342 -0.527584 -0.801126 0.383350 -0.623712 -0.239047 -0.238555 0.610172 -0.119948 -0.645212 -1.026295 0.587864 0.051053 0.573822 0.884961 -0.240900 -1.627261 -0.015551 0.185054
special 0.486116 0.271235 0.424546 -0.324649 -0.473195 0.261813 -0.161614 0.123458 -0.649571 0.210124 0.159459 -0.487138 0.837825 0.031044 1.247465 -0.593332 0.408171 0.321976 -0.663519 -0.523702 0.279819 0.666129 1.304783 0.216269 0.043088 0.449121 -0.142610 -0.304701 0.307925 0.602543 -0.393081 -0.042678 -0.700520 0.063969 0.379382 -0.138364 -0.636974 -0.888068 0.531549 -0.702256 -1.537138 -0.120539 0.949812 -0.949520 -0.137365 -0.098899 0.108587 -0.862289 0.570656 -0.417855
sure -0.097137 -0.425248 1.216443 0.284374 0.375178 0.470800 -0.639505 0.625600 -0.399014 0.220573 -0.095905 -0.220256 0.456100 0.176214 0.539238 0.053801 0.149658 0.255568 -0.179717 -0.498196 0.245679 0.319471 -0.048429 -0.029878 0.124424 0.113954 0.508706 0.057090 -0.094778 0.541840 -0.740051 0.591007 -0.223515 0.292359 -0.288467 0.420531 0.595428 -0.104411 0.663866 -0.537745 -1.487945 -0.053968 0.093883 0.112941 -0.209464 -0.061382 -0.424980 -0.615180 0.024066 -0.143274
visit -0.854293 -0.370025 1.501423 0.665761 -0.116019 0.781945 0.212726 0.240517 -0.427151 0.792477 -0.622018 0.083130 -0.049681 0.044519 0.789667 0.578472 0.120959 0.114566 -0.133583 -0.285619 0.052875 0.564996 0.247354 -0.026484 0.474514 0.558439 0.442486 -0.205109 0.230385 -0.520206 -0.595399 0.394248 -0.344360 0.276539 -0.417533 0.175533 0.182398 -0.081152 -0.010693 -1.285861 -1.017477 -0.944123 0.309260 0.729244 -0.471105 -0.511517 0.243681 -1.272967 0.049103 0.625052
give -0.413810 -0.255067 0.887035 0.590762 0.486086 0.086170 0.580929 0.087908 -0.051485 -0.229221 -0.411529 0.025840 0.891829 -0.420414 0.514714 0.264656 -0.153414 0.063201 -0.091448 0.046530 0.131296 0.325789 0.038530 0.580748 -0.461715 0.241287 0.546169 0.147863 -0.129525 0.257762 -0.464579 0.583577 -0.644704 0.387467 0.274488 0.097105 -0.120255 -0.483221 1.395909 -0.118840 -1.581442 -0.477418 -0.846475 -0.298373 -0.233385 -0.094185 -0.896538 -0.219489 0.347329 -0.001265
need -0.031435 -0.317941 1.305721 -0.073880 0.311440 -0.039040 -0.639024 1.178792 -0.411286 0.560054 -0.108410 0.255383 -0.161881 -0.017004 0.308756 0.210507 0.469976 0.380252 -0.418500 -0.275354 0.871745 0.190789 0.845055 0.734144 -0.512234 -0.452697 1.042641 0.329246 0.272584 0.831960 -0.883418 -0.165026 -0.376196 0.157652 0.583025 -0.189702 0.939243 -0.109742 1.191232 0.059231 -0.888188 -0.379343 0.274759 -0.283245 0.011062 -1.119122 0.285246 -0.283343 0.626166 -0.257886
cook 0.065127 0.523400 1.493679 0.435003 0.856993 -0.922849 -0.687064 1.128264 0.127337 -0.485054 -1.165294 0.150496 0.551691 0.595337 0.957291 -0.063726 -0.301218 -0.347933 -0.099574 -0.218528 -0.682478 0.684427 -0.299291 -0.472211 -0.249042 -0.543181 0.198919 -0.052909 0.177567 1.083935 -0.397302 0.768282 -0.838164 0.214571 -0.593304 -0.877671 -0.005558 -0.391529 0.880993 -0.141228 -0.757744 1.126079 0.535411 0.133267 0.202007 -0.357021 -0.119267 -0.073228 -0.734069 0.213814
happi -0.040559 -0.110267 1.400992 0.209981 -0.140555 0.370946 -0.263744 0.571729 -0.408961 -0.018432 0.768009 -0.641554 1.141834 -0.222784 1.144025 0.157665 0.575746 0.171377 0.307213 0.049462 0.738227 0.609094 0.709422 -0.318544 0.402356 0.650577 0.268338 0.573399 -0.283051 0.172032 -0.661368 -0.041970 -0.535527 0.015770 -0.571631 0.750550 -0.732456 -1.648227 0.399074 -0.707993 -0.954314 -0.154602 0.456189 -0.513378 0.308874 -0.257661 0.069434 -0.550707 0.410159 0.057350
wasn 0.398266 -0.419727 1.128290 0.357255 0.108758 -0.007126 0.516001 0.430096 -0.836739 0.017424 0.065541 0.458221 0.943697 -0.148518 0.434953 -0.303087 0.132634 0.161983 -0.092879 -0.267540 -0.341425 0.184551 -0.089054 0.361668 -0.401276 0.464229 0.618067 0.168837 0.556135 1.464489 -0.721982 0.238304 -0.438115 0.153913 0.170320 0.681138 0.475064 -0.648918 0.807804 -0.050327 -0.933009 0.356605 0.028437 0.145877 0.310200 0.291309 -0.628103 -0.659963 0.030892 0.679859
fast -0.695013 0.089815 1.428213 0.469078 -0.552145 0.555557 -0.585022 0.881068 -0.144826 -0.248053 -0.177670 -0.607300 -0.269134 0.191732 0.603887 1.021992 -0.400319 -0.026933 0.351030 0.052888 0.154086 0.464885 1.119695 0.185834 -1.077691 0.121939 0.460254 0.135580 -0.234498 -0.040402 -1.273199 0.129955 -0.324886 0.215787 0.392044 -0.555494 0.263909 -0.504738 1.130352 -0.562930 -1.059855 -0.194228 0.406011 -0.800726 0.834147 -0.240532 -0.433590 0.114164 -1.125388 1.008623
review -0.030254 0.319158 1.483861 0.414010 -0.516858 -0.095952 0.270938 0.592517 -0.833499 -0.367826 -0.857550 -0.286155 -0.072457 0.014687 0.471555 1.274981 0.241721 0.208902 0.441565 -0.006226 1.370484 0.070591 -0.265186 -0.042948 0.981787 0.862897 0.522429 0.747941 -0.092477 -0.287441 -0.478129 0.652665 0.264465 0.877165 -0.342031 0.573070 1.034434 -0.745772 1.292063 -0.560797 -1.010228 -0.798080 -0.210372 -0.229825 -0.241298 -0.218651 -0.259648 -1.580121 -0.243190 0.276832
disappoint -0.287382 -0.374746 1.512301 0.054032 -0.170688 -0.209467 0.417613 0.209106 -0.719500 0.030448 -0.508086 -0.120452 -0.062812 0.270165 0.756955 0.108123 0.311672 0.002701 -0.037359 -0.376359 -0.240037 0.417615 0.071997 0.272144 0.041985 0.665154 0.534960 -0.170992 -0.416865 0.514585 -0.358251 0.119525 -0.503350 0.332070 -0.305231 0.567613 -0.350425 -0.625255 0.566539 -0.474681 -1.190690 -0.400149 0.387150 -0.071365 0.094530 0.392067 0.097861 -0.891641 -0.372537 0.824519
small 0.048067 0.030800 0.584071 0.188393 0.036196 -0.541870 0.507999 0.769890 -0.717317 -0.505628 -0.727187 0.684655 0.934476 0.078286 1.009479 -0.642173 0.336609 1.151158 -0.830765 0.544418 -0.156184 -0.581613 0.568280 -0.375034 -0.693869 -0.358135 0.262313 -0.738643 0.343476 0.690923 -0.123449 0.662791 -0.291823 0.409164 0.185133 -0.033987 -0.314080 -0.718441 0.230017 -0.506721 -1.352213 -1.209080 -0.094474 -0.042435 0.364194 0.007819 0.328529 -0.364401 -0.123106 -0.219523
high 0.448610 0.167096 1.557268 -0.295275 -0.188359 0.352987 0.601106 1.131617 -0.614374 0.422365 -0.151462 -0.638573 -0.413572 -0.650273 0.888189 0.121476 0.147250 0.188916 -0.230060 0.118550 0.228289 -0.047368 -0.168457 -0.566592 -1.178062 1.044464 0.463570 -0.097970 -0.377833 0.051094 -1.160125 0.244305 0.177606 0.258335 0.351840 -0.648482 -0.528662 -0.438389 0.201041 -0.285269 -0.672746 -0.376835 0.038267 0.083631 -0.782879 0.028915 -0.396289 -1.190206 -0.534229 0.652660
vega 0.053557 0.270619 1.532506 -0.632641 -0.006882 0.832449 -0.418382 0.459103 -0.489711 0.958519 0.168838 -0.097985 0.715001 0.274553 0.521954 -0.052699 -0.103627 0.018405 -0.307747 -0.280709 0.652924 -0.072073 -0.404204 0.469600 0.072539 0.105460 0.603610 0.074702 0.251702 -1.023341 -0.967981 0.717145 -0.911712 0.318089 -0.185414 0.111653 -0.722677 0.198923 -0.024154 -1.656163 -0.902491 -0.055612 -0.211892 0.119057 0.132410 -0.307780 0.313881 -0.752593 0.514262 0.642168
get 0.044952 -0.511551 1.170314 0.364321 -0.125697 -0.115284 0.348947 1.084775 -0.455709 -0.070395 0.369491 -0.286233 0.986952 -0.035894 0.228149 0.237770 0.002168 -0.206884 -0.518271 0.339606 -0.007453 0.027718 -0.194982 0.172098 -0.552396 0.141324 0.288246 0.399295 0.187420 0.113371 -0.412890 0.834464 -0.351801 0.332484 0.030831 0.365409 1.133694 -0.765767 0.928006 -0.400069 -1.012086 -0.252992 -0.020941 -0.142209 0.292077 -0.282993 -0.507174 0.221481 -0.675108 0.302156
quick 0.378082 -0.271385 1.533033 0.265179 0.027224 0.774349 -0.254088 1.279238 0.243091 0.491297 0.275731 -0.271734 0.099636 0.044683 -0.237739 -0.154067 -0.060607 0.565230 -0.024157 0.058789 0.310020 0.353838 1.141355 0.411721 -1.093472 0.045709 -0.076169 0.305154 -0.262363 0.469972 -0.896294 0.548408 -0.287936 -0.220572 0.087754 -0.520227 0.752276 -0.452054 0.507808 -0.692240 -1.292340 -0.386270 0.265610 -0.425361 1.383914 -0.772587 -0.281556 -0.441665 -0.955518 -0.072530
seat 0.179871 -0.409688 1.175695 0.445567 -0.452259 0.552505 0.335807 1.324377 0.580973 0.088259 -0.759704 0.432452 0.623938 0.092005 -0.673327 -1.139950 0.078228 -0.039745 0.107704 0.525794 0.393740 0.022431 0.604878 0.566671 -0.865688 0.125277 0.381296 0.537174 0.649845 1.330804 -1.416742 0.990176 0.144057 0.087841 0.248645 1.060435 0.280849 -1.515323 0.217650 -0.720624 0.074308 -0.523145 0.084637 -0.878709 -0.032978 0.217684 0.668843 -0.957763 -1.042709 -0.299859
eat 0.136570 -0.491933 1.347468 0.812189 -0.089026 0.228533 0.441403 0.603134 -0.296167 0.185695 0.021299 0.066880 0.501756 0.544894 0.258874 0.929417 -0.372162 -0.435469 -0.282384 -0.133216 0.312624 0.124834 -0.266981 -0.352246 -0.127984 0.110387 0.236591 0.521222 0.561211 0.416383 -1.108006 -0.576328 -0.467103 -0.359835 0.076784 0.189031 0.210713 -0.122361 0.447306 -1.200078 -0.865661 -0.814428 0.017554 0.312637 0.036741 -0.388499 -0.064170 -0.095690 -0.387912 0.170600
check 0.024917 0.308010 1.191678 0.667221 0.438221 1.189397 -0.222222 0.154800 -0.139591 0.489580 -0.034648 0.099551 0.373522 0.016602 -0.092712 -0.183651 0.051443 0.584059 0.060987 -0.466332 0.971545 0.169130 0.400214 1.246203 -0.138965 -0.248113 0.286121 -0.062705 0.050737 0.377299 -0.941979 0.962188 -0.077759 0.544866 -0.099328 0.531899 0.846669 -0.326700 0.794360 -0.726250 -1.094984 -0.215743 -0.636747 -0.230554 -0.401668 -0.351150 -0.530124 -0.768459 -0.047635 -1.158868
worth 0.102340 -0.491081 1.216749 0.097982 0.195891 0.630321 0.423001 0.062610 -0.771054 0.640044 0.927272 0.214770 0.295091 0.229858 1.456316 -0.276010 0.607459 0.531484 -0.663180 -0.386086 -0.181824 0.254586 -0.245366 -0.191543 0.002299 0.697458 0.801695 -0.617445 0.073639 0.052529 -0.656256 0.600717 0.044650 -0.571746 0.418731 -0.186440 0.179957 -0.626107 0.792211 -1.446824 -1.160094 0.453837 -0.191722 0.460123 -0.208000 -0.063149 -0.260676 -0.646641 -0.011783 0.108041
clean 0.020515 -0.302233 1.084818 1.058340 -0.134463 1.138035 -1.178734 0.847577 -0.543529 -0.008555 -0.629211 0.271894 -0.303953 -0.647408 -0.437563 0.047566 -1.058095 0.452791 0.860377 0.924391 0.347205 -0.553249 0.499083 0.456650 -0.764723 -0.106202 1.173528 0.835213 0.160640 0.803402 -0.136893 0.320551 -0.342583 -0.986917 0.194489 -0.372268 -0.304387 -0.267621 0.199139 0.021187 -1.789667 -1.455066 -0.052106 -0.335545 0.296410 0.186409 -0.469782 -0.465035 -0.167688 0.659513
awesom 0.487088 -0.462604 0.478802 0.594900 -0.328922 0.029091 -0.123302 0.651287 -0.508594 0.384997 -0.170664 -0.760860 0.533536 -0.071183 1.028258 0.129186 -0.162987 -0.006342 -0.692589 0.118592 0.678737 0.420774 0.354058 0.270719 -0.264777 -0.375148 0.024758 0.275187 0.458509 0.346610 -0.110191 0.848285 -0.000308 0.144188 -0.253881 0.017327 -0.896506 -0.595904 0.014850 -0.771728 -1.618902 -0.222593 0.526558 -0.022101 -0.047088 -0.397398 -0.363909 -0.255547 0.285541 0.322852
super -0.079798 -1.067045 0.700712 0.593481 -0.153579 0.460862 -0.525042 1.406568 -0.713301 -0.369301 -0.101682 -0.248865 0.938081 -0.765687 0.930635 0.402343 0.028373 -0.082861 0.057702 -0.487276 0.384238 0.330352 0.575328 0.317669 -0.463633 0.516001 0.081338 0.152383 0.263349 0.992569 -0.342871 0.934195 -0.127035 -0.428685 0.079296 -0.620634 -0.435734 -0.516804 0.240920 -0.415181 -0.930618 -0.240264 0.747826 -0.306902 0.621180 -0.022670 -0.348374 -0.007669 -0.000359 0.845675
chef -0.322738 -0.009649 0.222768 -1.066220 0.347933 0.283044 -0.577240 0.425480 1.009871 0.502975 -1.204668 -0.901459 1.372574 -0.006792 1.174346 -0.794325 0.798111 -0.434856 0.537190 -1.414079 0.398178 -0.811474 0.075172 -0.226008 0.037014 -0.272015 -0.357301 0.001662 0.540279 1.063302 -1.053544 0.566621 -0.909332 -0.071772 0.438509 0.266008 -0.282331 -0.292000 0.570407 -0.234016 -1.133866 -0.198765 0.162811 -0.739003 -0.373327 -0.043023 0.132956 -1.075046 0.583327 0.360090
drive -0.560571 -0.567706 1.783851 0.419139 0.040302 0.574484 0.115398 0.599487 -0.894990 0.708890 0.328752 -0.239323 -0.124351 0.494645 0.245538 0.121164 -0.380777 -0.520647 0.491358 -0.126020 -0.918874 0.956336 0.996479 0.487966 0.597438 0.384957 0.236927 0.136848 -0.705995 0.160317 -0.552443 0.820193 0.021019 -0.869368 0.885426 0.122342 1.228476 -0.325125 1.442340 -1.350463 -0.207911 0.059876 -0.351220 -0.116864 -0.196430 0.129764 -0.386764 -0.036852 -0.121242 0.022595
open -0.660366 -0.027873 1.711195 -0.189408 -0.473260 0.074653 0.156998 0.642649 -0.178296 -0.604122 -0.742127 -0.408056 1.084586 -0.105082 -0.120086 -0.131337 -0.565831 -0.251371 0.671550 0.404933 -0.041820 0.879913 1.144270 0.450881 0.047970 -0.377049 0.444528 0.586449 0.838130 0.157833 -1.005044 0.239926 -1.232918 -0.621463 -0.201490 0.455606 -0.186077 -0.734809 0.194435 -0.255141 -0.467806 -0.689016 0.322246 -0.258864 -0.250631 0.584309 0.396070 -0.168742 0.741462 0.824048
portion -0.338812 0.442940 0.540022 -0.013953 0.224682 -1.089423 0.355177 0.618033 -0.739294 -0.455084 -0.249893 0.768697 1.047586 -0.103509 0.774671 0.155260 0.965851 0.922986 -0.785157 0.107849 -0.280693 -0.108663 0.435094 -0.870887 -0.662386 0.630699 0.352051 -0.339538 -0.213827 0.413326 -0.228421 0.154008 0.096518 0.300038 0.232324 -0.755783 -0.687774 -1.225769 0.576964 -0.540100 -1.321238 -0.987139 -0.077852 0.478842 0.616273 0.032869 -0.098064 -0.185843 -0.679700 0.369223
pizza -0.925235 -0.123454 0.897454 1.056851 -1.601203 -0.420086 -0.360204 0.868069 -0.821409 -1.775477 1.217132 -0.313833 -0.308528 0.348554 0.990793 -0.875889 -0.372646 0.244479 -0.829923 0.365738 0.456984 0.256745 0.215673 -0.243538 0.235818 -0.826243 0.237093 0.002998 0.435337 0.148508 -0.789276 -0.573696 0.194443 -0.476894 -0.222259 -0.330121 0.074558 -0.170257 0.620324 0.004717 -1.166151 0.727958 -0.553127 0.083627 0.143115 -0.457886 0.226204 -0.939740 -0.433600 -1.000247
area -0.174515 -0.368480 1.286147 0.282508 -0.110874 0.504968 -0.078313 0.706831 0.106890 0.680942 -0.171124 0.300061 0.116736 0.406519 0.547696 -0.557045 -0.081733 0.622624 -0.002634 0.737284 0.631516 -0.609474 0.472447 0.799105 -0.296649 -0.251204 0.722509 -0.250376 0.958842 -0.340097 -1.169309 0.066939 0.461747 -0.878817 0.399919 -0.255717 -0.019314 -0.838894 0.199644 -1.197997 -0.341281 -1.186219 0.033627 -0.336276 -0.231491 -0.187311 0.174893 -0.596890 -0.435655 0.022139
excel 0.398893 -0.142566 0.332300 -0.105487 -0.442898 0.228829 0.031540 1.028781 0.117624 0.058422 -0.919809 0.171422 -0.120544 -0.398366 1.135440 0.140749 0.067001 -0.108689 -0.487619 -0.727314 -0.021550 0.023645 0.595263 0.262985 -0.479198 0.407613 0.163531 0.282495 0.087076 0.142799 -0.969117 0.401088 -0.222209 0.055456 -0.157302 -0.334540 -1.051108 -1.153529 0.006959 -0.307740 -1.248782 0.202399 -0.092038 0.796863 -0.327014 -0.204485 -0.194182 -0.959017 -0.142436 0.098334
meat 0.366345 -0.092986 1.004359 0.051172 0.302863 -1.249130 0.763374 0.355802 -0.647755 -0.617992 0.044050 0.680897 0.912027 0.484792 0.941638 0.180882 0.216693 -1.518512 0.144115 -1.080580 -0.046171 0.203118 -0.187750 -0.352440 -0.471786 0.005403 0.543239 0.643922 0.650900 0.875323 -0.292479 -0.916441 -0.149173 0.241515 -0.200748 -0.932281 0.338474 0.362413 1.105697 -0.637962 -1.230723 -0.364309 0.239791 -0.588401 -0.060772 0.817432 -0.663558 0.558938 -1.027515 0.349318
waitress -0.280536 -0.523997 0.342938 0.424280 0.103057 0.653818 0.021186 0.165242 0.254080 0.560407 -0.773695 0.141672 0.560159 -0.795915 0.023197 -0.211054 0.152097 -0.269252 -0.218800 -0.448851 0.639592 0.273008 0.274259 0.688291 -0.960776 0.417063 0.390120 -0.014244 -0.283481 1.415942 -1.157279 0.855139 -0.597080 -0.080934 -0.159059 0.944219 0.053100 -0.776056 0.339895 0.176498 -0.974564 -0.072927 0.143868 -0.191795 0.256919 -0.793862 -0.388068 -0.692175 -0.105864 -0.236188
expect 0.084250 0.184611 0.737417 -0.389660 -0.163509 -0.089279 0.427692 0.776500 -0.297351 0.376825 0.144292 -0.182758 0.276632 0.072927 0.556195 -0.339437 0.073790 -0.321482 -0.701110 0.481759 -0.399665 0.238154 0.370801 0.044416 -1.008526 0.640353 0.597222 -0.432204 0.219210 0.610950 -0.633830 0.083751 -0.631972 0.631481 0.544407 0.256196 0.267690 -0.434091 0.779558 -0.549773 -0.852405 0.135686 -0.067474 -0.192284 0.040062 0.241184 0.037131 -0.835641 -0.582660 1.631370
spici 0.971723 -0.628745 -0.044434 0.140670 -0.530192 -0.473196 0.396835 0.404234 -1.521580 0.169722 -0.497526 -0.294980 1.022369 0.594888 0.791648 -0.128083 -0.358225 -0.902838 -0.097141 -1.018807 0.513043 0.753914 -0.190214 0.888604 -0.454363 -0.009562 -0.380687 0.129156 -0.379626 -0.010622 -1.984478 -0.252354 0.173542 -0.177121 0.159585 -0.808954 -0.691475 -0.219595 1.005804 -0.043439 -0.541549 0.231032 1.278834 0.653287 0.917358 -0.012055 0.265901 -0.972931 -0.548721 -0.498524
feel 0.787098 0.100899 0.847032 0.867489 -0.000595 0.531983 -0.519780 0.533230 -0.643646 0.605997 -0.090666 0.017476 0.997083 0.476103 0.685878 -0.155036 -0.523822 0.799602 -0.186629 -0.245783 0.103952 -0.601386 0.438859 -0.871333 -0.819971 0.415487 0.769793 0.124304 0.264706 0.379285 -0.937724 -0.430472 -0.113516 -0.025531 0.078110 0.684442 0.633358 -0.170244 0.666867 -0.593955 -1.253806 -0.249926 -0.272083 -0.504605 -0.624398 -0.167719 -0.273538 0.173182 0.511603 0.169727
start 0.451299 -0.327273 0.891950 0.571663 -0.804988 0.065535 -0.225369 0.354277 -0.403212 -0.178407 -0.345531 -0.487136 0.885928 0.250177 0.387085 0.489100 -0.175398 -0.514720 -0.186470 -0.070939 0.412738 0.047390 -0.188090 0.146932 0.444878 -0.314252 -0.004817 0.079483 0.267425 0.807625 -0.351189 0.718759 -0.309884 0.465463 0.002348 0.762552 -0.087483 -0.633583 -0.092551 -0.448721 -0.984168 -0.492552 -0.064349 0.362931 0.089720 -0.286014 -0.117765 -0.031542 -0.204945 -0.436238
walk -0.601303 0.272539 1.340924 0.886687 -0.007141 0.714557 0.045402 0.718944 0.350405 0.487783 -0.642335 -0.123410 0.660242 -0.161931 -0.234095 -1.500235 -0.118337 -0.547962 -0.118956 0.319544 0.761526 -0.479733 0.463810 0.417191 -0.496039 -0.193343 0.343448 0.046343 0.253547 0.880524 -1.000498 1.019893 -0.475306 -0.292538 -0.215705 0.794638 0.414200 -0.519832 0.984457 -1.064076 0.763655 -0.985761 -0.741239 0.344237 -0.441430 0.722398 -0.358047 -0.051629 0.161996 0.756541
reason -0.196186 0.389460 0.769014 0.215636 0.011752 0.027906 0.186419 0.456779 -0.686053 -0.372659 0.102185 -0.234847 0.771923 -0.650419 0.541938 -0.030308 -0.225437 0.159290 -0.135010 0.185145 0.052942 0.353810 0.092132 0.587511 -0.268993 0.586187 0.186455 0.364210 -0.285186 0.032405 -0.912229 0.332210 -0.015745 0.425730 -0.094302 -0.633654 -0.282464 -1.256487 0.926518 -0.601318 -1.132823 -0.181389 -0.484822 -0.423288 -0.216884 -0.253685 -0.330650 -0.316665 -0.420419 0.806460
spot 0.299731 -0.801393 1.526645 0.166055 -0.166843 0.938064 -0.724621 0.431198 -0.128490 0.333309 -0.722518 -0.736093 0.413244 -0.107503 1.050415 -0.261863 0.370605 0.945770 -0.320448 0.404330 0.465516 0.635212 0.332878 -0.032293 0.185195 -0.169261 -0.529381 -0.292919 0.466970 0.132906 -0.943653 1.121174 -0.011805 -0.309132 -0.017250 -0.725406 -0.439706 -0.347477 0.101522 -1.019166 -0.704994 -0.396151 -0.059456 -0.044070 -0.242043 0.824075 0.153600 -0.365641 -0.637121 0.359495
long -0.739457 -0.348120 1.153376 -0.060952 0.184578 0.829794 -0.394724 0.885947 0.016612 -0.044363 0.312127 0.223766 0.623272 0.312406 0.354313 0.068879 -0.675035 -0.084165 0.210042 -0.024992 -0.054286 0.278348 -0.156016 1.132081 -0.091437 0.571313 -0.095982 -0.040110 0.367377 0.814578 -0.195111 1.143074 -0.572975 -0.196067 0.264426 0.329932 1.161678 -0.699834 0.324491 -0.749786 -0.862903 0.055379 -0.081137 0.129136 -0.179016 -0.197172 0.032020 -0.242667 -0.172087 0.068365
tasti 0.478332 -0.449139 0.670391 0.197931 -0.352650 -0.341781 -0.048580 0.875151 -0.418153 -0.582212 0.042860 0.218780 0.506093 -0.040094 0.936349 0.186940 0.187463 -0.189129 -0.352782 -0.670090 0.209448 0.112244 0.049982 0.370387 -0.535183 0.548935 0.134418 0.077226 0.223612 -0.113613 -0.267237 0.113359 0.058851 0.088750 -0.134733 -0.766360 -0.783386 -0.324866 0.359534 -0.373003 -1.570440 -0.089294 0.717909 -0.305390 0.425345 -0.183271 -0.219417 -0.284344 -0.768767 0.337871
differ -0.650219 -1.005610 0.865782 -0.174830 -0.002049 -0.284387 0.286554 0.986605 -0.485590 0.305637 -0.606122 -0.117334 0.721191 0.374951 1.145784 -0.361830 -0.395987 0.449439 -0.283384 -0.179772 0.352508 0.429740 0.069279 0.312290 0.066124 0.683297 0.021817 -0.808299 0.512052 0.236580 -0.656441 -0.532747 -0.701952 0.382264 0.583574 0.032630 -0.133201 0.062197 0.288124 -0.153654 -0.882121 -0.433694 -0.006176 -0.032308 -0.687381 0.267079 -0.185947 -0.774519 -0.562568 -0.601155
atmospher 0.688540 -0.573080 0.265116 0.908518 -0.332533 0.980028 -0.314244 0.963834 -0.184284 0.247280 -0.593769 -0.349396 0.035410 -0.255883 0.639965 0.421026 -0.714839 0.637015 -0.358401 0.120223 0.282727 0.035086 0.883856 -0.139225 -1.091856 0.347653 0.888601 0.178482 0.471485 0.280047 -0.806256 0.166781 0.333627 -0.288632 0.066501 0.232246 -0.883338 -1.276143 -0.151288 -1.050171 -1.091006 -0.232694 -0.361061 -0.633132 -0.784986 0.296607 0.169945 -0.899271 0.346639 0.822916
shrimp 1.616113 -0.106903 0.441126 0.198482 0.259368 -0.697251 0.017480 0.868457 -0.537142 -0.105319 -0.210790 0.006494 0.667724 0.589386 0.331564 0.377931 -0.735872 -0.741244 -0.464510 -0.769658 0.011395 0.514169 -1.041181 0.305752 -0.388196 -0.202972 0.772433 -1.059982 0.067947 0.183992 -0.062733 0.690510 -0.663138 0.801591 0.404807 -0.045624 -1.198426 -0.781103 0.552042 -0.581139 -0.802667 0.252245 0.164458 0.710773 1.065330 -0.125875 0.319592 -0.906687 -0.697958 -1.172525
usual -0.178113 -0.411079 1.106177 -0.058231 -0.666797 0.106715 0.063553 0.987470 -0.442401 0.347455 -0.239450 -0.429168 0.256140 -0.529121 0.405348 -0.610355 0.296342 -0.115149 -0.363905 0.160537 -0.502361 0.799388 0.725518 -0.005573 0.025688 0.553937 -0.228350 0.022708 0.467311 0.028464 -0.285470 0.417255 -0.676989 0.424847 -0.150086 -0.281573 0.700996 -0.687766 0.737118 -0.046962 -0.936789 -0.506250 0.128967 -0.124486 0.295093 -0.009119 -0.088172 -0.029591 -0.542132 0.018696
bread 0.017614 -0.610221 0.377361 0.545467 -0.018182 -0.381106 -0.215902 1.159914 -0.139770 -1.222194 0.484940 -0.237665 0.390355 0.239761 0.527184 0.873643 -0.230662 -0.140078 -0.682647 -0.593970 -0.842407 0.278751 -0.176907 1.339622 -0.363590 -0.780613 0.616708 -0.215394 0.639690 0.857536 0.133011 -0.095070 0.270425 1.263633 -0.134806 0.757098 -0.446244 0.075372 -0.084801 -0.507524 -1.071897 -0.557016 0.886040 0.638541 -0.563883 0.370331 -1.550677 -0.144470 -1.135765 -0.395115
option -0.007252 -0.414381 1.075989 -0.413641 -0.338153 0.219173 0.161845 0.643347 -0.069405 -0.062021 -0.466105 0.468436 0.306868 -0.554957 0.757737 -0.048428 0.588918 -0.089100 -0.014863 -0.000729 1.029130 0.507224 0.223970 0.351703 -0.335323 -0.091887 -0.109633 0.610465 1.132144 -0.619132 -0.737953 -0.922164 -0.679067 0.741474 -0.138678 -0.475553 -0.358966 -0.661594 0.918157 -0.662445 -1.376218 -0.283425 -0.308534 -0.711344 -0.376647 0.618829 -0.227362 0.529465 -1.188618 -0.064820
sweet 1.066298 -0.937071 1.056687 0.614806 -0.529076 -1.065142 -0.137608 0.666869 -0.737324 0.458317 -0.555329 -0.286180 0.808033 -0.471038 0.816338 0.030115 -0.682896 0.140711 -1.134596 -0.416029 -0.210444 0.525783 -0.117844 1.366196 -0.682794 0.092548 -0.466518 0.054460 -0.022117 0.789073 -0.768869 -0.188406 0.542821 -0.114924 -0.103842 0.396615 -1.132483 -0.626111 0.306841 0.785378 -0.363949 -0.152493 1.021254 0.599678 0.872449 -0.820082 -0.527088 0.175473 -0.174273 0.600658
beer -0.129458 -0.323223 0.505754 -0.481989 0.160311 0.092629 0.348354 0.195356 -0.480176 -0.889254 0.635008 0.194200 0.007113 0.429760 1.418977 0.562145 -0.554026 0.188133 -0.935943 0.232597 0.676061 0.583103 0.509123 1.110868 -0.532387 0.527657 -0.660179 0.305117 -0.264735 0.852107 -0.759534 0.166143 0.215020 -0.582534 -0.606284 0.319656 -0.218355 -1.374196 -1.176834 -0.552989 -0.880061 -1.012761 -0.951733 -0.541191 -1.431803 -0.153640 0.123797 -0.342783 -0.213475 -0.744141
bring -0.397715 -0.634943 0.677098 0.995701 0.488824 -0.094349 -0.085189 0.554001 0.335999 0.190683 -0.267200 0.376823 0.401899 -0.136617 0.319150 0.280625 -0.114644 0.123508 -0.468556 0.043007 0.432047 0.227451 0.727211 0.724550 -0.711109 -0.213859 0.481003 -0.460606 -0.563574 0.367785 -0.986400 0.793111 -0.298460 0.791044 0.133352 0.581235 -0.271496 -0.523619 -0.045079 -0.007366 -1.029896 -0.277530 0.276824 0.190008 -0.554527 -0.764992 -0.541301 -0.955290 -0.215125 -0.385643
year -1.247750 -0.222360 1.451690 0.370446 -0.755401 0.360628 0.695925 0.171909 -0.364798 0.429039 -0.150403 -0.607966 0.477061 -0.282551 0.534158 0.199150 0.100605 0.094756 -0.378437 0.219895 -0.018994 -0.117898 0.267360 -0.168515 0.365107 0.540965 -0.123299 -0.087293 0.138454 -0.263301 -0.921419 -0.366099 -1.349751 -0.074003 0.475827 0.309706 0.195612 -0.318114 0.316175 -0.525942 -0.457619 -1.444770 0.758862 0.398895 -0.522107 -0.792400 0.725176 -0.307374 0.711733 0.825572
stop 0.282048 -0.812123 2.134759 0.465166 0.231105 0.901957 -0.245553 0.617225 0.359160 0.407749 0.433085 -0.052376 0.362846 0.366912 -0.099482 0.478387 0.334129 0.136085 0.077925 -0.319619 -0.075713 0.886502 0.659241 0.393785 -0.176423 -0.120884 -0.459780 0.155291 0.242550 -0.007411 -0.711835 0.878474 -0.620077 -0.568599 0.288226 -0.005524 0.152760 0.162741 -0.029468 -1.051629 -0.745456 -0.865466 0.320834 0.463709 0.125935 -0.328280 -0.520464 -0.580255 0.207895 0.053032
taco 0.198008 -0.199791 1.378210 -0.992665 -0.294286 -0.137772 0.320805 1.192664 -0.461732 -0.321897 -0.068691 0.041210 0.181957 0.473116 0.558300 1.235595 -0.768088 -1.120132 0.079749 -0.785362 -0.096220 0.723402 -0.276390 -0.122420 -0.791458 -0.251337 1.095885 -1.161682 0.313997 0.207413 1.454564 0.889811 0.957248 -0.096338 0.972851 -0.446558 -0.002897 -0.563336 -0.388326 -0.424553 -1.193990 -0.554348 0.009213 0.713825 0.562730 0.799127 -0.231916 -0.207793 0.111592 -0.726111
item -0.930976 -0.320282 0.230248 -0.873322 0.396103 0.283611 -0.140601 0.555670 -0.628030 0.251354 -0.528744 0.843311 0.608799 -0.344461 0.828029 -0.278263 -0.566304 -0.014287 0.356771 -1.029446 0.092334 1.050897 0.330335 0.620254 -0.355893 0.784749 0.235447 -0.751357 0.275991 0.064720 -0.343906 -0.153286 -1.191608 0.442265 0.221629 -0.003517 0.055818 -0.647048 0.421773 -0.317245 -0.990823 -0.592649 -0.041224 0.553329 0.117222 0.234146 -0.305984 -0.726629 -0.944985 -0.822827
soup -0.276228 0.306576 -0.032330 0.872850 -1.087828 0.187084 0.824098 -0.215189 -0.606759 -0.579503 -0.374342 0.299699 0.329456 0.270780 0.080639 -0.894841 0.400851 -0.319471 -1.399367 -0.166681 0.430032 -0.639282 -0.445976 1.000719 -0.186924 -0.116133 -0.154685 -0.060839 0.298812 0.582833 -0.383212 -0.026334 -1.058230 0.663456 0.083117 -0.274498 -0.605574 -1.109904 0.280557 0.223719 -2.062089 -0.776336 1.001437 0.508573 0.964179 -0.227071 -0.111004 0.472607 -0.692562 -0.182349
appet 0.751874 0.292707 0.618411 -0.249676 -0.136366 -0.426765 0.936133 0.719349 -0.471313 -0.058254 0.273575 0.047160 0.307413 0.210552 1.097339 -0.078861 -0.702815 0.052403 -0.285252 -0.728660 0.613317 0.545119 0.192284 0.076639 -0.292527 0.084622 -0.082093 -0.800580 0.406991 1.038887 0.038779 -0.154040 -0.570541 1.131536 0.063832 0.399929 -0.346901 -1.488748 -0.321019 -0.721073 -1.023383 0.582853 0.053284 0.435097 0.356224 -0.299320 0.010696 -0.643370 -0.656753 -1.036044
away 0.197255 0.532966 2.171258 0.548213 -0.206223 0.484887 0.331105 0.667685 -0.367144 1.058476 -0.816243 0.257389 1.132861 -0.718514 0.228614 -0.454334 -0.634656 -0.255129 -0.125675 -0.177319 0.149465 -0.639976 0.876446 0.154323 0.098806 -0.605780 0.623962 0.269149 -0.350091 0.562372 -0.907454 0.979393 -0.199364 0.024388 0.516637 -0.101191 0.617728 0.132659 0.541086 -0.185548 0.573123 -0.482231 -0.236158 -0.019704 -0.204200 0.589858 -0.314613 -0.624937 -0.452124 0.654750
close -0.356118 0.128434 1.615666 0.393623 0.228303 0.507951 0.018662 0.660594 -0.162852 0.189283 -0.420217 -0.648194 0.935124 0.233469 -0.332936 0.412154 -0.095209 -0.072215 -0.237276 0.475538 0.141611 1.051762 0.795456 0.009257 -0.023492 -0.779502 0.686703 0.458698 0.298984 -0.310504 -1.065345 0.232998 -0.727687 -0.644070 0.133559 -0.051703 0.216332 -0.422327 0.754659 -0.433241 0.073392 -0.868175 0.541695 0.109731 -0.405768 0.522192 0.065546 -0.123239 0.101401 0.434279
offer -0.694239 0.113577 0.621352 -0.391453 0.124616 0.681972 0.497614 -0.269628 0.321241 0.412758 -0.533489 0.021204 0.540670 -0.404080 0.899415 -0.011490 0.425847 -0.091904 -0.588435 0.333127 0.685729 0.656286 0.704313 0.306949 -0.574674 -0.360542 1.066888 0.068364 0.334045 0.369164 -0.427329 0.008641 -0.702850 0.607092 0.057370 0.068889 -0.284754 -0.577536 0.247324 0.220996 -1.323908 -0.505169 0.259672 -0.420201 -0.197576 0.519099 -0.136913 -0.643456 -0.071475 -0.852894
help -0.647343 -0.399860 0.633559 0.356502 -0.245902 0.605528 -0.422807 0.815968 -0.225620 0.060705 -0.417672 -0.231256 0.281764 -1.150153 0.482408 0.039717 0.157800 0.257032 0.076309 -0.217079 1.136917 0.732905 0.671868 0.760338 -0.889658 -0.098960 -0.326113 0.293831 0.005674 1.349348 -0.331880 0.253190 0.317195 0.082831 0.726900 0.133862 0.211475 -0.308602 1.000621 0.219284 -0.943922 -0.235271 0.071961 -0.049219 -0.029223 -0.509835 -0.473849 -0.561073 0.363932 0.232467
overal 0.366857 -0.391423 0.399307 0.479531 0.127946 0.623940 0.140469 0.546935 -0.339099 0.007194 -0.111172 0.006034 0.177539 -0.126180 0.856151 -0.225974 -0.061906 0.438248 -0.780437 -0.274876 0.352724 0.155655 -0.022766 0.362607 -0.525977 0.894615 0.894049 0.162232 -0.026394 0.206642 -0.373722 -0.275003 0.226920 -0.237124 -0.881736 0.273934 0.177910 -0.750499 0.679359 -0.637190 -1.040986 -0.253743 -0.052399 0.280979 0.333640 -0.020811 -0.483662 -0.893089 -0.415371 0.886111
select 0.106026 -0.206886 0.014297 -1.012944 -0.040866 -0.107195 -0.055036 0.280207 -0.809779 -0.351260 0.077672 0.274936 0.481171 -0.598356 1.497392 0.071789 0.029865 0.502828 -0.194306 -0.025122 1.038229 0.588832 0.657187 0.478327 -0.732067 0.468129 0.015250 0.353472 0.650827 0.428838 -0.790004 -0.500286 -0.333618 -0.219090 -0.069968 0.002513 -0.624556 -1.081145 -0.411436 -0.429534 -1.175092 -0.623393 -0.494525 -0.145429 -1.133738 0.368469 -0.136210 -0.941549 -0.740181 0.034318
make -0.224040 -0.287424 0.862002 0.340025 0.318306 0.162290 -0.465222 0.664791 -0.317247 0.282858 -0.164702 -0.473516 1.190198 0.148296 0.975283 -0.024590 0.221960 0.490111 -0.073949 -0.680600 0.060565 -0.669147 0.409046 -0.253678 0.150028 0.156269 0.147529 0.128030 0.238098 0.756499 -0.435113 0.807043 0.074952 -0.247798 -0.255581 0.405549 0.142208 0.300150 0.622333 -0.333161 -1.032694 -0.472083 -0.169289 -0.076803 -0.656805 -0.167756 -0.034506 0.472636 0.603421 0.069361
person -0.474736 0.112911 0.481300 0.145782 -0.367184 0.133989 -0.315109 0.887555 -0.227753 0.492879 0.531563 0.044921 1.116725 0.038270 0.869639 -0.371946 0.434589 -0.524643 -0.114036 -0.152386 0.615267 0.100021 0.288467 -0.311232 -0.562428 0.274178 0.164848 -0.208691 0.425645 0.547847 -0.788207 0.193250 -0.034880 0.231723 0.596347 0.456645 0.433231 -0.290588 0.981426 -0.502700 -0.766381 0.069698 -0.652864 0.677684 -0.459470 -0.526533 -0.513812 -0.676751 -0.307058 0.016373
steak 0.831872 1.019186 1.424214 -0.830193 0.491434 -0.499215 0.506024 0.830301 0.180203 -0.473433 -0.408647 0.947821 -0.242847 0.128213 0.891204 -0.581635 0.405005 -0.999724 -0.769426 0.022186 -0.087801 0.593743 -0.117355 -0.479289 -0.064552 0.253674 0.175381 -0.092683 0.059008 0.544430 -0.552205 0.944216 -0.604318 -0.558355 0.152421 -0.996133 -0.509226 -0.045523 0.270633 -0.028922 -1.055934 1.124091 -0.510279 1.147185 0.426522 -0.926785 0.104509 0.543271 0.254461 0.090068
dessert 0.022412 0.013692 0.426385 -0.015758 0.732066 -1.001403 0.652671 0.447731 -0.112995 0.624229 0.002470 0.101922 0.501330 -0.730164 1.642718 0.141344 0.300136 0.964932 -0.496688 0.105623 1.026103 -0.013015 0.147580 0.470770 -0.039002 -0.857172 0.565582 -0.559972 1.075996 -0.018567 -0.264708 -0.011324 -0.741282 0.734179 -0.786331 0.799461 -0.560085 0.095114 0.387560 -0.724065 -0.817931 0.858688 0.341687 1.214144 -0.185916 -1.054514 -0.964889 -0.425118 -0.841960 0.059612
home 0.254081 0.235934 1.584465 0.865317 0.105678 -0.169730 0.113533 0.374507 -0.282694 -0.319186 -0.009991 0.175022 0.530011 0.343424 0.333862 0.352909 -0.598626 0.077705 0.046571 -0.259401 -0.417053 0.331004 1.012676 -0.100016 0.691169 -0.374391 0.573216 0.334485 -0.215464 -0.184945 -0.717779 0.181558 -0.672778 0.097513 0.046493 0.054361 0.297211 0.009369 0.495056 -0.394330 -0.475423 -0.587511 0.352519 0.299412 -0.359148 0.072385 -0.249824 -0.340469 -0.642106 0.169956
probabl -0.035434 -0.157347 1.259200 -0.205509 -0.151986 0.479814 0.561296 0.558224 -0.280585 0.028995 -0.013520 -0.291488 0.443241 0.094928 0.454824 -0.099195 0.285304 -0.151952 -0.552397 -0.064471 -0.117113 -0.124949 -0.334561 0.729856 0.254670 0.274816 0.271907 0.273130 0.650482 0.032795 -0.945246 -0.184246 -0.313019 0.192940 -0.812246 0.197221 0.720374 -0.794102 0.799648 -0.490327 -0.790053 -0.408744 -0.302760 0.442612 0.451440 0.225284 -0.225009 0.044881 -0.148125 0.603885
attent -0.189619 -0.066176 0.264136 0.146672 0.334061 1.341406 0.061535 1.188960 0.244898 0.673136 -0.645875 -0.274247 0.397533 -0.987297 0.087256 0.141794 -0.119432 0.443739 -0.138924 -0.869182 0.519244 0.553624 0.555995 0.483402 -1.312130 0.532029 0.572617 -0.076412 -0.106254 0.988334 -0.866702 0.651314 0.144995 0.199914 0.253019 0.220387 -0.253490 -0.854263 0.211372 -0.286051 -1.060116 0.243070 0.233735 -0.061540 0.194177 -0.945106 -0.649627 -1.328650 0.128573 0.234542
bowl 0.530457 -0.701093 0.635760 0.450501 -0.913662 -0.096786 0.310201 0.719275 -0.589353 -0.635612 -0.132851 1.172355 0.946208 -0.149658 0.445216 0.065170 0.811767 -0.786914 -0.658493 -0.308854 0.351444 -0.150121 0.557935 -0.532272 -0.040285 -0.148927 -0.157800 0.796752 0.533607 -0.040273 -0.596258 -0.060486 -0.763404 -0.337795 0.527284 -1.005004 0.144411 -0.136624 0.812387 0.478807 -1.121917 -1.267043 0.129483 1.123204 0.539784 0.543419 0.379368 0.891096 -0.497999 -0.361392
beef -0.073901 0.527232 0.840038 -0.766579 -0.058206 -0.169393 0.223312 0.043232 -0.669160 -0.838638 -0.449224 0.644085 0.276237 0.030745 0.034007 0.449507 0.156120 -1.406979 -1.240389 -1.304695 -0.064939 0.775003 -0.689901 0.246420 -0.790113 -0.097380 -0.211590 -1.338826 0.477274 1.012356 -0.418605 -0.999013 -0.357768 0.125809 -0.178844 -0.766850 -0.766092 -0.522567 0.051565 -0.372738 -0.735837 -0.540702 0.380543 0.206212 1.186539 0.653939 -0.493664 -0.008824 0.019870 0.246694
decid 0.272028 -0.244844 1.552728 0.497973 0.105404 0.372634 -0.027416 0.257923 0.049948 0.153415 -0.063230 0.272998 0.295647 -0.106135 0.289279 0.353996 -0.005064 0.124798 0.220016 -0.313115 1.024772 0.449953 0.581646 0.367824 0.697010 0.280672 -0.310865 -0.080707 0.255257 -0.149494 -0.300809 0.939376 -0.842266 0.213539 0.051841 0.558954 0.584347 0.016535 0.505284 -1.044477 -0.214396 -0.699910 0.061296 0.404477 0.304139 0.388800 -0.420004 -1.313335 0.012219 -0.207310
salmon 0.989973 0.573584 -0.621609 0.371782 -0.819248 -0.367293 0.681781 0.610931 -0.902126 -0.858051 -0.489656 -0.326386 1.296970 -0.381152 0.749369 -0.371503 -0.659332 -0.376733 -0.318009 -0.519361 -0.054973 -0.020622 0.001082 0.234541 0.225626 0.601052 -0.256608 0.309789 -0.071305 0.040714 -0.866619 0.379474 -1.377845 -0.617101 -0.312627 -0.656769 -0.676842 -0.786090 0.324569 -0.417062 -0.311784 0.182345 1.185194 1.142522 0.574613 0.808768 0.131146 -1.012086 -0.017487 -0.916768
room 0.018747 0.359679 0.514670 1.124049 0.714984 0.053860 -0.313399 0.321869 -0.384317 0.039927 -0.604800 0.616315 0.892328 -0.753548 -0.709823 -0.739830 -0.148736 1.579248 -0.182833 1.306881 -0.255572 -0.866667 -0.021892 1.104187 0.459791 -0.317653 1.404868 -0.129350 0.767955 0.077101 -0.907444 -0.925414 -1.015816 0.019047 -1.004540 0.092808 0.049605 0.106250 0.170740 -0.873367 -0.532813 0.212745 -0.836213 -0.702642 -0.631326 0.046917 -0.379261 -1.020399 0.158234 -0.263053
hard -0.529837 -0.485410 0.724580 0.486648 0.910136 0.190464 -0.196697 1.159124 -1.451407 -0.004637 0.285386 0.381199 0.930564 0.516545 -0.063835 -0.085709 -0.159639 -0.141051 -0.385212 -0.397870 -0.151106 0.489935 -0.842692 0.127134 0.234026 0.474151 0.557009 0.489488 0.270975 0.706746 0.569600 1.029591 -0.767678 0.259582 -0.907202 -0.167356 -0.137592 0.087603 0.369524 -0.336333 -0.769751 -0.063783 0.250588 -0.649011 0.152986 0.209014 -0.598288 0.085053 -0.550344 0.158781
actual -0.310369 0.275185 1.052453 0.248060 0.096858 -0.567601 0.184337 0.642293 -0.333398 -0.178715 -0.112098 -0.580502 1.108353 0.412093 0.392589 0.085486 -0.118756 -0.028789 -0.573644 0.007854 0.530170 0.062383 -0.071199 -0.410310 -0.119739 -0.165240 0.231767 -0.132988 0.107733 0.541992 -0.526876 0.078088 -0.347195 0.137362 -0.279751 -0.265076 0.331077 -0.276569 0.600720 -0.139490 -0.533433 -0.431347 -0.045605 -0.412372 0.141191 0.244228 -0.011062 -0.528208 -0.578967 0.455818
grill 0.453709 0.543385 1.116319 -0.220486 -0.766891 -0.804353 -1.555448 1.116979 -0.029336 -0.640038 -0.322293 0.545322 -0.147341 0.482826 0.055773 -0.865154 -0.483390 -0.865865 -0.177525 -1.271843 -0.663020 -0.012908 -0.509447 0.078064 -0.241753 0.784081 -0.259500 0.131026 0.696153 -0.342002 -0.614504 0.818617 -0.677907 0.937613 -0.587075 0.054446 -1.110905 0.130087 -0.138409 -0.213205 -1.081245 -0.610112 0.300624 0.360658 0.095066 -0.106416 -0.693214 -0.479278 0.185678 -0.503444
line -1.150321 0.523486 0.993685 -0.471229 -0.077659 0.785227 -0.235382 1.118332 -0.264797 -0.373874 0.679674 0.639861 0.504459 0.476354 0.383014 -0.540682 -0.181253 -0.816593 0.526371 0.876050 0.067622 0.494929 0.597826 0.796868 -0.466058 -0.361994 -0.258034 0.082837 0.966761 0.710763 -0.107708 0.589700 -0.105954 -0.811731 0.927072 0.494830 1.699631 -0.470594 1.096513 -0.695757 -0.355334 0.028810 -0.544596 0.605610 0.429962 -0.787239 -0.240376 0.567428 -0.454454 0.341753
tuna 1.202565 -0.199732 -0.262455 -0.617518 -0.783075 -0.286469 1.015789 1.388507 -0.521888 -0.775550 -0.251222 -0.386889 2.087147 -0.069678 1.379992 0.338059 -0.832696 -0.675394 -0.540080 -1.413803 0.134790 0.172542 0.271979 -0.163584 -0.034288 -0.221253 0.201927 0.597711 -0.077706 -0.211303 -0.679394 -0.265235 -0.626457 -0.445798 0.536738 -0.505672 0.124684 -0.069649 -0.301630 -0.211375 -0.164874 -0.041295 1.288033 1.079453 0.555214 0.512811 0.332920 -1.150701 0.266651 -0.830381
half -0.373658 0.684443 0.968368 0.163956 0.319045 -0.341147 0.588515 0.058337 0.149750 -0.540591 0.502295 0.285643 1.354336 -0.449303 0.321727 -0.291956 -0.058086 0.173812 -0.143198 -0.042447 -0.495425 1.233089 0.544936 0.100540 0.093632 -0.085885 0.273162 0.245561 -0.292112 -0.209095 -0.391558 -0.125830 -0.949324 0.741075 -0.020206 0.927497 -0.248800 -1.650565 0.847412 -0.192329 -0.374708 -0.460870 0.465618 0.119907 0.005390 -0.562305 -0.315784 0.171836 -0.711190 -0.611527
cream 0.076684 -0.305628 0.521388 0.430136 0.117424 -0.012630 1.018397 0.015003 -0.440638 0.748938 -0.567815 -0.263610 0.082106 -0.631264 1.980146 -0.640848 0.073995 0.525660 -0.790818 0.724555 0.207765 0.060871 0.514500 1.265940 0.053221 -0.326484 0.324805 -0.144722 0.704792 0.545988 0.060582 -0.343233 -0.468574 0.367199 -0.614203 0.612973 -1.072270 1.033844 0.822688 -0.118419 -0.734594 -0.020509 1.215467 1.116399 0.347533 -0.481475 -0.319464 0.891532 -0.827588 -0.277443
decent -0.045566 0.122432 0.529289 -0.356498 -0.161683 -0.225381 -0.069334 0.438002 -0.550209 -0.518759 0.102609 -0.155537 0.627461 -0.115410 0.733397 0.372670 -0.447048 0.367360 -0.736615 0.524297 0.597557 0.674484 0.267955 0.007488 -0.638382 0.540905 0.408370 -0.103969 -0.106373 0.181389 -0.368928 -0.475800 -0.245690 -0.336709 -0.073557 -0.262620 -0.122067 -1.297414 0.146622 -0.562097 -0.993314 -0.492059 -0.145775 -0.056040 0.482178 0.196870 0.261997 -0.777639 -0.752834 0.909828
breakfast -0.060129 0.389906 1.321524 -0.163720 0.119100 0.018584 -0.224528 -0.469466 -0.462671 0.188666 0.591398 0.525140 -0.107219 -0.346904 0.323218 0.472463 0.633918 0.312229 0.285241 0.476052 -0.285242 0.795880 1.185095 0.357602 0.186175 0.325254 0.223330 0.363827 0.255770 0.746304 -0.528824 1.030911 -1.126697 -0.478630 -0.088102 -0.217033 -0.526475 0.440662 -0.705794 -0.820259 -1.016681 -0.024339 0.613568 0.745553 0.233445 0.373050 -0.855528 -0.490104 -0.860819 0.941919
mayb -0.306240 -0.431965 0.894059 -0.095044 0.045038 0.395453 0.108369 0.585450 -0.666845 0.178225 0.012817 -0.237085 0.669131 0.438786 0.636850 -0.158164 0.061118 -0.343225 -0.439801 0.086132 0.358161 0.397964 -0.488987 0.139296 -0.113565 0.760129 0.127134 -0.091935 0.343882 0.743711 -0.258051 0.502542 -0.391008 0.452999 0.233273 0.440319 1.047259 -0.125572 0.788583 -0.397811 -0.816097 0.020773 0.516619 -0.160965 -0.247867 0.051778 0.328650 -0.030670 0.202803 0.412936
piec -0.184505 0.019970 -0.227080 0.061304 0.054934 -0.488786 1.037166 0.273167 -0.763555 -0.705765 -0.073108 0.578898 2.111444 -0.064201 0.946301 0.083000 -0.236858 -0.265508 -0.828048 -0.602151 -1.313354 -0.555159 -0.197144 -0.118673 -0.154669 -0.058450 0.217332 -0.848702 0.146235 0.785613 0.017473 0.227022 -0.871283 0.112603 0.613798 -0.133168 -0.262952 -0.332522 0.294214 -0.629899 -0.451743 -0.895270 0.594809 -0.074205 0.451194 0.399594 -0.351548 -0.513154 -0.468536 -0.859647
choic 0.495656 -0.212713 0.517302 -0.781560 -0.110763 -0.211415 -0.329237 0.433570 0.034653 -0.098237 -0.207961 -0.081759 0.405163 -0.154652 0.948553 -0.596148 0.012896 -0.050336 -0.359230 -0.351243 0.589939 -0.070916 0.516033 0.721248 0.446261 -0.020355 0.363162 0.403784 0.490661 0.123561 -0.098109 -0.606040 -0.434505 0.312503 -0.160188 -0.029027 0.277862 -0.615855 0.403654 -0.735624 -1.616266 -0.623545 -0.056504 -0.168724 -0.162251 0.433390 -0.031795 -0.860676 -0.760806 0.065086
kind 0.068275 -0.170727 0.373954 -0.001125 0.381528 0.122714 0.408999 0.848033 -0.618400 0.064751 -0.436621 -0.525759 0.574340 0.396043 0.505829 -0.320220 -0.707780 0.088997 -0.344758 -0.064805 0.383152 0.539113 0.383404 0.370385 -0.402383 0.521150 0.442956 -0.055700 -0.101506 0.722425 -0.096364 -0.169697 -0.003735 0.287412 0.257398 0.717468 -0.032035 -0.104201 0.853022 -0.229254 -0.961967 -0.207151 0.165857 -0.554522 -0.136047 -0.011981 -0.578494 -0.065016 0.371983 0.520675
husband 0.140164 -0.321259 1.246961 0.710077 -0.169864 -0.469762 0.502556 -0.482754 0.390919 -0.029825 -0.104889 0.275704 -0.033319 -0.163342 0.635571 -0.252070 0.187866 -0.790038 -0.417538 -0.136702 0.795812 0.762645 0.227663 -0.320859 -0.187948 -0.030413 -0.093738 -0.627667 0.128491 0.246657 -0.880361 0.461894 -0.672820 0.376112 -0.375366 0.619822 -0.559710 -0.614749 -0.075851 -0.556825 -0.374198 -0.266679 0.406481 0.187532 0.032798 -0.212649 -0.288984 -0.420901 -0.242245 -0.102195
free -0.544714 -0.340915 0.758252 -0.087395 0.839537 0.491191 0.557279 -0.373145 0.420556 1.142289 -0.205145 0.646036 -0.010004 -0.756957 0.425929 0.362446 0.742761 -0.215751 -1.013113 0.783830 0.900925 0.440796 0.718851 1.005861 -0.116043 -0.652994 1.429592 0.273169 0.806394 -0.194586 0.197980 0.195495 -0.585133 0.958748 -0.259277 -0.659878 -0.101550 -0.250332 -0.124671 -0.196726 -1.664383 -0.624711 0.198069 -0.805055 -0.471036 0.048582 -0.906133 0.139258 -0.012349 -0.731099
return -0.177121 -0.036841 1.280078 0.428004 0.107127 0.383812 -0.342540 -0.305625 0.042650 0.397331 -0.049438 0.044340 -0.090427 0.015692 0.674970 0.196880 0.349122 0.067164 -0.301436 -0.862275 0.284446 0.161496 -0.162676 -0.099392 0.171277 0.405426 0.314594 0.048480 -0.216829 0.113658 -0.496825 0.435405 0.046396 0.069587 -0.284931 -0.038799 0.350726 -0.836426 0.476105 -0.953495 -1.084986 -0.681346 -0.647082 0.744416 -0.661316 -0.048457 -0.146224 -0.683133 0.314181 0.489222
point -0.651668 0.569011 0.777338 0.150998 0.006230 0.131230 0.300453 0.468723 -0.165836 -0.157794 -0.430817 -0.628689 0.918019 -0.235092 0.740144 0.309375 -0.147328 -0.180438 -0.114389 0.236313 0.225362 -0.200354 0.180289 0.260833 -0.268554 -0.320785 0.366101 -0.009517 -0.716679 0.848192 0.109431 0.777513 -0.103135 -0.034087 0.516848 0.124047 -0.045455 -0.578142 0.678827 -0.521447 -0.192533 -0.417884 -0.386336 0.080861 -0.100518 0.418515 -0.402571 -0.245569 0.159998 -0.147076
absolut -0.172026 -0.173927 0.614664 0.007838 -0.066103 0.186375 0.551294 0.572928 0.003515 0.591430 -0.512588 -0.674110 -0.242918 0.223540 0.808670 0.358110 -0.223476 -0.252446 0.167661 -1.021678 -0.381493 -0.177976 0.194748 0.127861 -0.379397 -0.254468 0.502470 0.189057 -0.123700 0.371166 -0.686823 0.401469 -0.185357 0.376767 -0.392026 -0.187848 -0.335080 -0.787373 0.416428 -0.789514 -1.116694 0.457984 -0.238413 0.578046 -0.327064 0.273974 -0.240956 -0.286419 0.183977 0.309481
employe -1.434592 -0.302529 0.228076 0.982010 0.301146 0.658801 -0.748768 0.838507 -0.009056 0.402250 -0.919154 -0.476341 0.805199 -0.042895 -0.224342 0.304640 0.191806 -0.284029 0.283810 0.163076 0.038927 0.232851 0.679811 -0.342412 -0.380202 -0.160739 0.030126 0.406900 -0.378477 0.876290 -0.265679 0.876040 0.791128 -0.837825 0.440752 0.172752 0.962014 -0.063998 1.523116 -0.414610 -0.630265 -0.662949 -0.402638 0.247528 0.367664 -0.688143 -0.754886 0.437014 0.240377 0.184872
insid 0.278863 -0.549842 0.645950 0.674435 -0.146566 -0.143383 0.220097 1.119628 -0.952160 -0.065802 -0.894241 0.451949 0.752050 0.516592 0.055459 -1.181526 -0.819601 -0.487988 0.023000 0.252986 -0.048149 0.319068 -0.067838 0.898276 -0.326968 -0.196027 0.624261 0.698682 0.489211 0.095815 -0.158464 0.286838 -0.057138 -0.563704 0.681295 0.221589 -0.348080 0.073117 0.598748 -1.644742 -0.362127 0.251047 0.275291 -1.064627 -0.414189 0.326172 0.179081 0.015833 0.169433 0.247187
water 0.025819 -0.431006 0.688227 0.143765 0.857113 0.476386 0.150097 0.237481 0.608021 0.150217 -0.053611 0.329299 1.085887 -0.473878 0.237177 -0.595027 -0.759796 -0.111130 -0.817252 -0.843506 0.880477 -0.304097 0.093910 1.599998 -1.017900 -0.226792 0.865093 -0.106557 -0.871297 0.185720 -0.429471 1.041709 -0.545153 -0.228440 -0.888406 0.600094 0.521111 -1.370737 0.414346 0.840228 -0.241310 -0.895912 -0.116418 0.009084 -0.029979 -0.024320 -0.093536 0.477656 -0.074217 -0.543802
larg 0.139785 0.010238 0.514723 0.246769 -0.291950 -0.651864 0.226403 0.726367 -0.544578 -0.474340 0.012417 1.164482 0.927129 -0.708539 0.381339 0.061573 0.374071 0.204661 -0.194579 0.557830 -0.724754 -0.042532 0.883194 -0.117685 -0.585579 0.409342 0.128537 -0.258558 0.360447 0.398500 -1.318897 0.377841 0.027962 0.172910 0.183664 -0.311112 -1.352493 -0.768895 -0.001979 -0.270479 -0.512644 -0.989664 -0.700565 0.113355 -0.383537 -0.027675 0.520481 -0.660095 -0.881833 -0.671073
coupl -0.299902 -0.506087 1.226223 0.489819 -0.594385 0.189175 0.383661 0.321777 -0.311548 0.127901 0.158564 0.263018 0.464581 -0.048562 0.523814 -0.434958 -0.636953 0.191443 -0.144252 -0.436239 -0.435428 0.520200 0.492987 -0.120210 -0.262677 0.187422 -0.668459 -0.416146 -0.090828 0.550768 -0.762863 0.154056 -1.160137 0.097907 0.401829 0.528156 0.127158 -0.996681 0.008675 -0.487839 -0.166415 -0.997623 0.263901 0.497093 -0.371895 -0.390693 0.673132 -0.841401 -0.002615 -0.139910
potato 0.865837 0.463753 0.903047 0.309472 -0.526521 -1.423719 0.598870 -0.331439 -0.905010 -0.166781 -0.493562 0.592763 -0.383209 -0.072336 0.682277 -0.093225 0.077335 -0.446490 -1.042068 0.452738 -0.714156 0.634888 0.254293 0.640718 -0.285266 0.055276 -0.354528 -0.005366 -0.011999 1.412960 -1.009816 0.226104 0.069657 -0.206069 -0.289302 -0.068301 -1.441169 -0.399000 -0.146518 0.405935 -0.885648 0.427415 1.011181 0.895273 1.118161 -0.760201 -0.394695 -0.059995 -0.248490 0.213470
famili -0.535771 -0.882024 0.541815 1.360078 -0.025817 0.488667 -0.143086 0.555714 0.465729 0.551251 -0.389926 0.198110 0.336218 0.005332 0.255962 0.895061 0.177093 -0.060068 0.542764 0.338215 -0.203266 -0.117911 0.760677 -0.907537 -0.443708 0.549481 -0.076169 -0.905803 0.782503 -0.215746 -1.067002 0.164873 -0.262850 0.617716 0.455894 0.237210 -0.800972 0.058932 0.248451 -0.773047 -0.701071 -1.214950 -0.107096 0.019388 -0.252731 -0.653667 0.185642 -0.859695 0.167496 -0.067913
thank 0.093726 0.269066 0.744274 0.127270 0.229621 0.237876 -0.424182 0.681141 0.413141 0.422769 -0.640992 -1.211513 0.586593 -0.417566 0.662140 1.041286 0.170599 -0.417023 0.368598 -0.584291 0.576450 0.224793 0.510584 -0.408413 0.389420 -0.356246 -0.171805 1.049158 0.015596 0.130655 -0.839576 0.490665 -0.032808 -0.102779 -0.523567 -0.213001 0.109088 -0.715051 0.743104 -0.369748 -0.730560 0.121697 0.182227 -0.174903 -0.481806 -0.791701 -0.457937 0.241449 0.580017 -0.055104
pork 0.189420 0.226860 0.317311 0.701512 0.136014 -1.639177 0.648888 0.558374 -0.409591 0.419952 -0.241523 0.292719 -0.636367 0.461065 0.201174 0.317825 -0.023263 -0.797698 -0.236793 -0.600918 0.489187 -0.020131 -0.366100 0.771230 0.702262 0.710686 -0.680581 -0.443223 0.021861 0.715089 -0.297599 0.731963 -0.223031 0.685658 0.126074 -2.017999 -0.853617 -1.654661 0.191953 -0.633505 -0.315880 0.272491 0.830314 1.148643 -0.133050 0.627898 -1.014332 -0.468777 -0.284753 -0.209665
care -0.594878 -0.100125 0.346481 0.063365 0.496815 0.556044 -0.869029 0.928084 -0.446688 0.184076 -0.334729 -0.605830 0.485925 -0.156013 0.666779 0.253559 0.116139 0.513046 0.355138 -0.567769 0.171257 0.061156 0.139728 -0.450808 -0.134845 -0.121812 0.945126 0.331796 -0.205872 0.948785 -0.476599 0.522464 0.355366 0.027567 -0.254837 0.206786 0.877644 -0.070288 0.746102 0.099454 -0.974362 0.185017 -0.168350 -0.112238 -0.388551 -0.354130 -0.678211 -0.386504 -0.200487 -0.765274
hous 0.078180 -0.409111 1.002289 -0.726948 0.154962 -0.373761 0.095324 0.800797 -0.212513 0.448998 -0.523780 0.111692 0.159713 0.249785 0.290938 0.021345 0.306109 -0.944693 -0.888905 0.058197 0.485077 0.601167 0.077288 0.412416 -0.161164 0.020725 -0.364560 0.874789 -0.159938 -0.140426 -0.906321 0.096605 -0.413706 -0.103632 -0.447627 -0.195554 -0.904618 -0.288152 -0.525314 -0.553706 -0.731988 -0.792372 0.791359 -0.175138 0.296497 -0.075607 -0.245421 0.110911 0.491748 -0.365145
wrong -1.166790 -0.093126 0.462785 0.392628 0.579554 0.211459 0.901747 0.934079 -0.865507 0.681250 0.050460 0.003231 0.712113 0.506616 -0.160698 0.138789 -0.434102 -0.582582 0.245927 -0.513187 -0.221204 0.687476 0.366966 -0.053314 -0.133128 0.352011 0.373373 0.238297 0.069326 0.195650 -0.250601 0.978555 -0.230471 0.272246 0.203749 0.064889 0.099589 0.105778 0.835647 -0.032128 -1.128208 -0.473912 -0.237849 0.345804 -0.316845 -0.392005 -0.663383 -0.287667 -0.093868 -0.427790
arriv 0.018438 0.760160 1.061321 0.578983 -0.079530 0.917035 0.372094 0.325097 0.466293 -0.486237 -0.205760 0.211446 -0.127995 0.132324 -0.074409 -0.437643 -0.423574 -0.314510 -0.116067 -0.029146 0.326217 0.032244 0.553675 0.537339 0.022280 -0.002551 -0.064934 -0.209144 0.575444 1.349271 -0.624445 1.020468 -0.823751 0.121689 0.399709 0.444814 0.502935 -1.296723 -0.177188 -0.121753 -0.413832 0.275792 0.228584 -0.858661 0.065156 -0.423258 0.363592 -0.779586 -0.924786 -0.481948
extra 0.196325 -0.438400 0.633125 0.027204 0.076662 0.159887 1.173429 -0.020646 -1.274253 -0.173935 0.288427 1.269261 0.805961 -0.057736 0.876483 -0.564048 0.453946 -0.275394 -0.963735 0.189661 -0.846216 0.263820 0.690249 0.695724 -0.058521 0.401891 0.721439 -0.101921 -0.615634 0.222561 -0.655677 -0.147955 0.531592 -0.469094 0.532500 -0.115942 0.358198 0.812626 0.916032 0.003528 -1.137122 -0.119967 -0.045061 0.120294 -0.003673 -0.048127 -0.821609 -0.391716 0.227556 -0.797170
hand -0.657847 0.614234 0.215307 -0.110987 0.470130 0.576709 -0.336972 -0.131119 -0.196845 0.190136 -0.198566 -0.614525 0.946718 0.331131 0.802907 -0.036942 -0.878100 0.015321 0.662022 0.002623 0.060132 -0.178196 0.237618 0.662093 -0.481755 -0.345708 -0.033530 -0.422563 -0.547765 0.466485 -1.231599 1.331928 -0.456809 -0.800081 -0.137038 0.046195 -0.577256 -0.121010 0.568177 -0.375132 -0.491378 -0.357021 -0.001714 0.967264 0.280882 -0.052730 -0.566744 0.279045 -0.145347 -0.876487
veggi 0.171864 -0.336150 0.845447 0.002938 -0.438907 -0.585380 -0.531167 0.645733 -0.597850 -0.714632 -0.218639 0.699878 -0.054029 -0.061035 0.541809 0.075067 0.767164 -1.198150 -0.354882 -0.589145 0.542885 0.243225 -0.229469 -0.075750 -0.350196 0.360917 -0.138872 0.722878 0.167407 0.073082 -0.713553 -0.696691 -0.373585 0.351368 -0.639648 -0.765441 -0.540705 0.219166 0.628691 -0.267139 -1.420451 -1.051988 0.540399 -0.282183 0.673709 -0.045017 -0.448459 0.455224 -0.611017 -0.597350
huge 0.019223 -0.121438 0.866249 -0.077181 0.011257 -0.615518 0.351893 0.658931 -0.543861 -0.226484 0.050021 1.088931 0.438412 0.097377 0.482822 -0.234270 0.610665 0.352682 0.197674 0.351932 0.142449 0.057960 0.391327 0.225071 -0.301339 0.386308 0.199363 0.030911 0.327327 0.612019 -0.472322 0.130229 0.059009 0.000999 -0.079411 -0.617869 -0.805907 -1.132573 -0.071690 -0.412325 -0.742439 -0.517852 -0.195938 0.178891 -0.067921 0.446892 -0.044428 -0.536106 -0.123316 -0.046742
waiter -0.163055 -0.003574 0.414473 0.094567 0.539913 0.622025 0.406819 0.700277 0.468239 0.607681 -0.903427 0.305608 0.275629 -0.441225 -0.188250 -0.096288 -0.058268 -0.040359 -0.079964 -0.775655 0.600826 -0.107313 -0.204070 0.640072 -0.927123 0.407117 0.410498 -0.075460 -0.331943 1.013208 -0.779371 1.044781 -0.132046 0.155233 -0.098146 0.455604 0.022864 -1.031483 0.035503 -0.195298 -0.666070 0.505040 -0.215832 -0.128501 -0.217836 -0.352415 -0.583406 -1.460690 0.136141 -0.385184
final -0.814082 0.164214 1.441408 0.388966 0.379874 0.376030 0.541615 -0.384573 0.917587 -0.158490 0.191837 -0.287928 0.559659 0.029353 0.259447 -0.019649 0.011653 -0.146501 0.239761 -0.196817 0.781301 0.434815 0.360635 1.190738 0.022564 -0.269634 0.253013 -0.538486 -0.125856 0.347411 -0.665464 1.230398 -0.721484 -0.352426 0.308667 0.756094 0.267484 -0.520738 0.617249 -0.483807 0.087856 -0.100870 0.192255 -0.097119 -0.140720 -0.286747 -0.257113 -0.419114 -0.175593 0.489412
surpris 0.445221 -0.425138 0.807002 0.305331 -0.581798 0.034753 1.101623 0.616170 -0.171770 0.001077 0.063927 -0.510918 0.086359 -0.115611 0.167687 -0.012487 0.276264 0.055038 -0.056416 0.655619 0.119358 -0.018439 0.733931 0.198564 -0.144622 0.709092 0.367344 0.218349 -0.022621 0.844055 -0.365456 0.283010 0.111957 -0.103550 0.465611 0.226666 -0.288764 0.038411 0.052278 -0.323401 -0.581937 -0.278208 0.795202 -0.023832 0.736556 0.062789 0.009194 -1.014014 -0.152804 0.800885
second -0.482408 -0.219369 1.120321 0.737393 0.131866 0.227857 0.616417 -0.015714 0.276030 -0.020783 -0.454904 0.382248 0.649456 -0.321654 0.549242 -0.201385 -0.439967 0.064358 -0.153629 -0.481895 -0.080890 0.647432 0.071661 0.235574 -0.026735 -0.012876 0.099659 -0.073236 -0.006160 0.066225 -0.351259 0.121337 -1.022398 0.191209 -0.679114 0.329115 0.914285 -0.843636 0.347824 -0.503580 -0.198220 -0.235859 -0.071660 0.741734 -0.732519 -0.039614 0.422877 -0.543338 -0.067392 -0.148340
week -0.338096 -0.236385 1.044648 0.568396 -0.386532 0.656388 0.419753 -0.141141 -0.744379 0.529543 0.031353 0.093849 -0.384458 -0.244638 -0.304656 0.289591 0.166196 -0.264277 -0.123443 -0.098201 -0.635220 0.858274 -0.098690 -0.063126 0.302427 0.408358 0.062338 0.099182 0.620487 -0.280111 -1.061577 0.089157 -0.685517 0.349181 -0.165550 0.097637 -0.587364 -0.599557 0.150498 -0.670513 -0.740231 -0.834132 0.320231 0.242935 -0.723006 -0.476594 0.308594 -0.816335 0.247913 0.157141
crispi 0.156584 -0.388628 0.542830 0.520309 0.066791 -0.375955 0.412058 0.865590 -1.182500 -0.956122 -1.423837 0.754886 0.678124 0.490010 1.163597 -0.114136 -0.062244 -0.685833 -0.205195 -0.390865 -0.034319 1.130190 -0.406449 0.344872 -0.308943 -0.345657 0.119404 -0.218085 -0.011155 0.530646 -0.143292 -0.508175 0.547332 -0.540573 -0.485505 -0.410674 -1.087976 0.393531 0.527520 -0.738822 -0.666229 0.572548 1.089381 0.040201 0.782592 -0.170611 0.048555 -0.631696 0.197678 -0.444635
wonder 0.054763 0.198119 0.534522 0.254515 0.072314 0.235358 -0.159930 0.240285 0.612503 0.177906 -0.772074 -0.309108 0.112763 -0.477074 1.102628 -0.137010 0.054886 -0.302305 0.101782 -0.993063 0.530990 0.023067 0.407179 0.001343 -0.058222 0.100651 0.215125 0.133154 0.381903 0.290085 -0.687948 0.215989 -0.294045 0.107998 -0.234494 0.206945 -0.523693 -0.308810 0.326149 -0.641787 -0.748469 0.021878 0.574935 0.269538 -0.501256 -0.512831 -0.205313 -0.389058 0.232207 0.513197
town -0.051231 -0.322594 1.284454 0.184162 -0.091732 1.114911 0.221867 0.533479 0.065837 0.656136 0.127507 -0.666856 0.143629 0.578037 0.587595 0.652525 0.011976 0.431069 0.156974 0.361325 0.357387 0.009178 0.109822 0.000745 0.424757 -0.153493 -0.062433 0.259469 0.716763 -0.702867 -0.987203 0.353554 -0.424340 -0.284787 -0.094824 0.094501 -0.262703 -0.363956 0.150267 -0.758496 -0.821493 -0.584585 -0.178566 0.137027 0.124592 -0.170024 -0.001824 -0.776685 0.248390 -0.008701
stay 0.576526 0.586372 1.758069 0.407874 -0.491456 0.730877 -0.333612 0.071843 -0.547738 0.452896 0.165945 0.421156 0.825565 -1.036276 -0.698370 -0.360837 -0.487724 0.161347 -0.400047 0.250384 0.113011 0.255157 0.105357 0.537409 0.041253 -0.100742 1.093428 0.458094 0.317897 -0.983865 -0.908248 -0.126075 -0.785713 -0.064682 -0.095344 -0.084870 0.687779 0.648256 0.244622 -0.777789 -0.477420 0.253393 -0.353503 -0.188162 -0.148987 -0.080224 -0.066574 -0.781330 0.442357 0.956080
din -0.360250 -0.003784 0.947316 0.950151 -0.149881 0.155646 0.086723 0.563697 0.833790 0.303823 -0.490744 0.121154 -0.143317 0.252224 0.071610 -0.891113 -0.238520 0.559089 0.052581 -0.019707 0.468689 -1.228092 0.540147 0.305736 0.413132 0.777369 0.493344 -0.301202 0.591815 0.144285 -0.631496 -0.708559 -0.463490 -0.371339 -0.678457 0.318628 0.104158 -0.690532 -0.055943 -1.263110 -1.031465 -0.708633 -0.699752 -0.308026 0.075004 -0.477440 -0.049251 -0.936003 0.159640 0.221804
instead -0.056759 -0.039878 1.043410 0.307027 -0.101687 -0.451643 0.363106 0.242832 -0.110465 -0.699263 0.252719 0.506398 0.535262 -0.272379 0.713593 0.021570 -0.388270 -0.987212 -0.412807 0.191244 -0.162424 -0.147212 0.018912 0.763792 -0.204469 0.056570 0.003606 0.017259 0.100494 0.001244 -0.055221 0.368177 -0.146120 0.354026 0.123903 0.416933 -0.082218 0.046848 0.966965 -0.073645 -1.122065 -0.633732 -0.248690 0.014449 0.110195 -0.321623 -0.567347 0.034373 0.024657 0.112508
bacon 0.247860 0.024969 0.494411 0.714236 -0.330621 -0.539764 0.088308 0.246519 -0.917021 -0.898064 0.152588 1.208556 -0.216816 0.471030 0.909982 -0.929150 0.707369 -0.211696 -0.218640 -0.344228 0.127175 0.854936 1.347184 0.335667 0.154384 -0.127248 -0.101473 -0.032864 0.237399 0.859917 -0.063514 0.188695 -0.281341 -0.587932 -1.179696 -0.037322 -0.480684 1.189257 -0.536657 -0.367168 -0.951981 0.955368 0.888856 0.614850 0.437990 0.282916 -0.979322 -0.658850 -0.029873 -0.108031
live 0.090522 -0.312024 1.462406 0.301960 -0.603464 0.696106 -0.262964 0.767054 -0.652466 0.708361 0.161277 -0.646630 0.365366 0.271976 0.855981 0.360131 -0.560136 -0.027204 -0.381028 0.242183 -0.304140 -0.086368 0.470139 0.462987 0.362428 -0.185686 0.219522 -0.505771 0.416712 -0.567444 -0.844551 0.356440 0.157669 -0.059806 0.691674 0.084786 -0.154351 -0.442535 0.107044 -0.978426 0.469407 -0.684915 0.621731 -0.240773 -0.542348 0.110846 0.543355 -0.379192 0.353841 0.590226
size -0.459907 0.685567 0.585448 0.210009 0.221380 -1.071455 0.503572 0.747693 -0.563083 -0.449073 0.069363 0.948676 1.177672 -0.034915 0.580120 -0.487165 0.755315 1.322131 -0.799031 0.095975 -0.131517 0.122425 0.869441 -0.661892 -0.435956 0.349376 -0.039060 -0.199401 -0.291367 0.213751 -0.098822 0.123610 0.382914 0.493436 0.122232 -0.859435 -0.577536 -1.099176 0.228649 -0.496732 -0.828885 -0.931766 0.065478 0.376788 0.188662 -0.077453 -0.025755 -0.492553 -0.677804 0.037433
buffet -0.333024 0.598962 -0.054391 -1.249215 0.341220 0.482962 -0.544062 -0.191705 -0.164524 0.527794 0.650819 0.384902 0.549555 -0.379397 0.105328 0.005372 0.142030 0.577346 0.197825 0.888503 0.728062 0.230601 0.020568 1.018070 -0.154003 -0.463312 0.767576 0.012364 1.439066 -0.213840 -0.873427 -0.078256 -1.146438 0.194943 0.821139 0.327676 0.174445 0.178556 0.284599 -1.196837 -1.105616 -0.011079 -0.334853 0.602806 0.101985 -0.459213 0.042687 -1.050395 -1.147519 0.893863
top -0.008191 -0.266137 0.359582 0.154708 -0.422932 -0.609847 0.361529 0.879054 -0.877812 -0.547047 0.302461 0.623197 0.696473 -0.261865 1.611157 -0.900664 0.330265 -0.026284 -0.650126 -0.378553 -0.000985 0.409438 0.413430 0.050693 -0.853498 -0.313312 0.108394 0.603971 0.677875 -0.038573 -0.474645 -0.760304 0.873633 0.324043 0.065293 -1.161773 -0.152226 0.743316 0.789931 0.249263 -0.777893 -0.107151 0.337398 0.364388 -0.547592 0.442764 -0.087441 0.280847 -0.819170 -0.944526
chang -0.525617 -0.513214 1.349409 0.204299 0.071062 0.242101 -0.353151 -0.061792 -0.341068 0.254718 -0.258648 0.521260 -0.048424 0.130245 -0.122028 -0.244927 -0.193914 0.712791 -0.255094 0.042398 0.393346 0.512387 0.104204 0.255664 0.320281 0.305799 0.444461 -0.024355 -0.480227 0.552609 -0.456069 -0.446351 -0.859353 0.033721 1.262641 0.060065 0.679578 -0.431394 0.620220 0.533855 -0.831134 -0.646582 -0.023610 0.487265 -0.513321 0.069285 -0.459788 0.051838 0.689661 0.435993
pick -0.404034 0.115113 0.737133 0.766514 -0.677970 0.163893 0.163256 0.256119 -0.076695 -0.010803 -0.188978 -0.006369 0.389655 0.022686 0.445772 -0.771763 0.006726 -0.738501 -0.064768 -0.092041 0.943370 0.401291 0.313189 -0.131452 -0.154438 -0.934016 -0.621156 0.059709 0.556365 0.169547 -0.204204 0.603283 -0.609472 0.372407 1.397690 -0.404877 0.408555 -0.303644 1.148265 -0.424672 -0.752964 0.001681 0.218755 0.140680 -0.568880 0.245967 -0.406194 0.139463 -0.817338 -0.354773
especi 0.075641 0.008585 0.672129 -0.123299 0.066030 0.509118 -0.232882 0.964177 -0.213153 0.141756 0.628952 -0.468368 0.398436 -0.121078 1.083026 -0.107060 0.227144 0.107872 -0.481475 0.328567 -0.506949 0.318628 0.075370 -0.287808 -0.355509 0.146120 0.254855 0.038596 0.615412 -0.111687 -0.598316 0.217636 0.122226 0.174896 0.278172 -0.343753 -0.337807 -0.447851 0.469208 -0.729743 -0.705781 0.289716 0.213848 0.109650 0.291822 -0.142618 -0.449771 -0.038799 0.091604 0.133598
park -0.457702 -0.028219 0.871942 -0.263257 0.163108 0.803533 0.188377 1.535872 -0.001290 0.492233 -1.002952 -0.124889 -0.492318 0.026903 -0.959923 -0.861861 0.708320 0.879061 -0.715194 0.804474 -0.451849 0.171376 0.076546 0.013812 0.330293 -0.323507 0.710660 0.739988 0.627885 -0.073611 -0.043076 1.098241 0.670534 0.050145 0.259809 -0.777502 0.788732 -0.721230 0.392766 -1.187905 -0.032573 -0.882707 -0.426468 -0.013629 -0.961987 1.405948 -0.145693 -0.003201 -0.490207 -0.369327
chipotl -0.798683 -0.679856 0.939360 -0.427923 -0.553391 -0.071787 -0.197620 1.470737 -0.406283 0.482781 -0.238800 -0.159162 -0.290746 0.536904 0.458926 0.002812 0.269684 -0.537608 -0.214945 0.041232 -0.093454 0.089559 0.746376 -0.434377 0.198751 0.208403 0.197652 0.476015 -0.091127 -0.409130 -0.026441 0.283537 0.049125 -0.165686 0.525099 -0.545940 0.527176 0.277311 1.452211 -0.020986 -0.838982 -0.673544 -0.288187 1.134513 0.715750 0.066702 0.323597 0.708338 -0.189686 0.676251
fantast 0.365135 0.012864 0.755526 0.517064 -0.782876 0.023351 0.178967 0.417195 -0.192009 0.159067 -0.268127 -0.370719 0.388189 -0.558006 1.007069 -0.308839 -0.060544 0.028884 -0.278091 -0.681090 0.580307 0.140767 0.380792 -0.274572 -0.486034 0.173027 -0.195670 0.024288 0.045245 0.351097 -0.333664 0.062251 -0.372389 0.219828 -0.122414 -0.295133 -0.939200 -0.897400 -0.257568 -0.281212 -0.956102 0.645532 0.067278 0.167561 -0.432906 0.039687 -0.074476 -0.451609 0.000237 0.392696
reserv -0.274266 -0.040253 0.877781 0.555832 -0.257050 0.394158 -0.037756 0.341611 0.055709 -0.117778 -0.100465 -0.011100 0.124685 -0.159711 -0.611660 -0.388700 1.070809 -0.017202 0.354475 0.768118 0.347997 -0.297812 -0.440590 -0.041826 0.234309 0.211669 0.496605 -0.344476 0.961762 1.325612 -1.272033 1.266839 -0.234448 0.869957 0.300510 1.091229 -0.259365 -0.921576 0.470491 -1.133315 -0.328596 0.232031 -0.379545 -0.821051 -0.556544 -0.213822 0.680704 -0.893606 0.320724 -0.415054
green 0.760935 0.049522 0.616979 0.579052 -0.507588 -0.103885 0.398137 -0.123107 -0.504576 -0.076513 -1.179139 0.602405 -0.002868 -0.174518 0.662540 -0.647333 0.009467 -0.217543 -0.242176 0.082072 -0.054170 0.460382 -0.494330 0.717911 -0.796799 0.127994 -0.848039 -0.491280 0.832099 -1.089261 0.168937 0.353515 -0.027007 0.410794 -0.141448 0.030204 -0.060670 0.147485 0.614272 0.349348 -1.262504 0.214916 1.485575 0.979107 0.256232 0.118237 -1.257902 0.559258 0.031666 0.149110
